apple,0.054466042667627335,-0.009564307518303394,-0.00629666680470109,-0.0323084257543087,-0.0009542032494209707,0.026312027126550674,0.005195660050958395,0.0012342792470008135,0.03634783253073692,-0.012258738279342651,0.018124781548976898,0.006554717198014259,-0.013754294253885746,0.01255774311721325,0.0226063784211874,-0.01265972200781107,0.01104904804378748,0.028538281098008156,0.017286209389567375,-0.04911254346370697,0.014788718894124031,0.015802744776010513,-0.029589852318167686,0.03332963585853577,0.0010525493416935205,-0.002384005580097437,0.029595430940389633,-0.06907514482736588,-0.03711742162704468,0.05917436257004738,-0.06548166275024414,0.02121618762612343,-0.07974200695753098,0.005824272520840168,-0.008783062919974327,-0.04014341160655022,-0.007603607140481472,-0.003612410044297576,0.04239989444613457,-0.008138549514114857,-0.023476283997297287,-0.051904045045375824,-0.03571880981326103,-0.003966215532273054,0.03785897418856621,-0.01886937953531742,0.04393308237195015,-0.004120178520679474,-0.021598264575004578,-0.05226174741983414,0.06722798198461533,-0.018772585317492485,0.054683830589056015,-0.007038823328912258,-0.012809298001229763,-0.030814729630947113,0.04335794225335121,0.007401452865451574,-0.03714672103524208,-0.007275317329913378,0.015204590745270252,0.05192314460873604,-0.0231521874666214,0.06859903037548065,-0.004895756021142006,-0.02659890614449978,-0.026335692033171654,0.04105314239859581,0.04905497655272484,-0.019057998433709145,-0.05584972724318504,0.014250787906348705,0.06536661833524704,-0.04565119370818138,-0.02280895970761776,-0.06862477958202362,-0.025615228340029716,0.019092367962002754,0.008836347609758377,0.0006865547620691359,-0.05894805118441582,-0.05917580798268318,-0.0581345297396183,-0.03579234704375267,-0.05969811975955963,-0.017131494358181953,-0.047675058245658875,0.011657550930976868,0.017184404656291008,0.024227246642112732,-0.0034652058966457844,-0.012537038885056973,0.014589988626539707,-0.09474100917577744,-0.01632797345519066,0.054371125996112823,-0.03363411873579025,-0.027440786361694336,0.012819976545870304,-0.050015706568956375,-0.006230639293789864,-0.019085122272372246,0.016093268990516663,-0.010540051385760307,0.006366934161633253,0.026569444686174393,-0.030456217005848885,0.02241801656782627,0.017208188772201538,0.022994546219706535,-0.08316740393638611,0.008623420260846615,-0.0013221950503066182,-0.01672493852674961,0.04707279056310654,-0.0012220469070598483,-0.019873421639204025,0.09629847854375839,0.01841645874083042,0.028538299724459648,-0.023225760087370872,-0.03207341209053993,0.11347292363643646,0.02458961121737957,-0.007588294334709644,-0.018025126308202744,0.004459603223949671,0.008115645498037338,0.06113696098327637,-0.0055878497660160065,-0.038448091596364975,-0.04289823770523071,0.03749820590019226,-0.015088162384927273,0.06288307160139084,0.09409473091363907,0.026898842304944992,0.013454774394631386,0.019378984346985817,-0.006297447718679905,-0.03573315963149071,-0.02589426003396511,0.0047181458212435246,-0.0038841383066028357,-0.014472536742687225,0.04221309721469879,-0.015655459836125374,-0.05938010662794113,0.02326079271733761,0.029777830466628075,-0.006098313257098198,-0.00827545765787363,-0.0589347779750824,0.012081533670425415,0.035768501460552216,-0.02513214573264122,-0.004491775296628475,0.03403457999229431,0.011494019068777561,0.001520538586191833,0.05813346803188324,0.0034371402580291033,0.007510546129196882,0.036478348076343536,-0.04515274241566658,-0.04234557971358299,0.04907015711069107,0.016732066869735718,0.0018741420935839415,0.014895042404532433,-0.021895064041018486,-0.02050955966114998,-0.0542520210146904,-0.0478191114962101,-0.03862437978386879,-0.07755178213119507,-0.01740753836929798,-0.006277070846408606,-0.0011411686427891254,-0.01941894367337227,-0.03401732072234154,-0.013349484652280807,-0.017026249319314957,0.04965725913643837,0.01909487694501877,0.02080504782497883,0.045025452971458435,-0.018680529668927193,-0.006058988161385059,-0.002020292216911912,-0.009293938055634499,0.01122627966105938,-0.026062127202749252,-0.033801689743995667,0.013399266637861729,0.05383443832397461,0.003320135176181793,0.017106756567955017,-0.009776598773896694,-0.047159407287836075,0.04694167897105217,0.069825679063797,-0.018107613548636436,-0.015582283027470112,0.01884186640381813,-0.022324463352560997,0.11119797825813293,-0.0742044672369957,0.01509883999824524,0.02173885516822338,-0.07840542495250702,0.0394037589430809,-0.037367578595876694,0.01951129361987114,0.013329761102795601,0.026224466040730476,0.022702526301145554,0.02809717506170273,-0.01901284046471119,-0.004996651783585548,-0.055405668914318085,-0.01638427935540676,-0.035910554230213165,-0.015290875919163227,-0.009164712391793728,0.05949876829981804,-0.03189729526638985,0.026899076998233795,-0.0003646000986918807,-0.043070439249277115,-0.025462033227086067,0.034426674246788025,0.032514192163944244,0.019953055307269096,0.06544822454452515,-0.03743796423077583,-0.003974271472543478,-0.0015018876874819398,-0.020195968449115753,0.007238594815135002,-0.047611214220523834,0.04381907358765602,0.027296531945466995,-0.01549350656569004,-0.06105729192495346,-0.024860482662916183,-0.05744260549545288,0.01417428720742464,-0.03753748536109924,-0.0008106987806968391,-0.003922025673091412,0.003959347028285265,0.005067723803222179,0.02210463397204876,-0.059815119951963425,0.02839624136686325,-0.10398495197296143,-0.0103059196844697,0.009509068913757801,-0.017399275675415993,0.045554861426353455,0.01389096025377512,-0.03861900418996811,-0.0025267440360039473,-0.025580303743481636,0.014137380756437778,0.02143942192196846,-0.042719271034002304,0.0022003483027219772,0.016487881541252136,0.004645884037017822,0.020653221756219864,0.08551507443189621,0.013817318715155125,-0.012098001316189766,0.01597624644637108,-0.05688418075442314,0.020301930606365204,0.009645376354455948,-0.02180252969264984,0.01565477065742016,0.02117481268942356,0.03163912892341614,-0.05176058039069176,-0.059794310480356216,0.01899852603673935,-0.04877829924225807,-0.003863843157887459,0.04207191243767738,0.008249583654105663,-0.08164077997207642,-0.010202477686107159,-0.04195532947778702,-0.05055064335465431,-0.034277986735105515,0.025978054851293564,-0.04412274435162544,0.06614470481872559,0.024616263806819916,-0.01707611046731472,0.022707171738147736,-0.05497639626264572,-0.022193972021341324,-0.06064116582274437,0.010332905687391758,0.007869287393987179,-0.013505818322300911,-0.02936159260571003,0.003433966776356101,-0.017663829028606415,0.026370801031589508,-0.024491112679243088,-0.019293902441859245,0.01527588814496994,0.05855890363454819,0.0029635997489094734,-0.03441331535577774,-0.007848139852285385,-0.009345746599137783,0.06991404294967651,-0.011383011937141418,0.031050262972712517,0.045208536088466644,-0.018707863986492157,0.020270047709345818,0.001264996943064034,0.0006652292795479298,0.057843971997499466,0.006327534560114145,-0.0173112191259861,-0.025062471628189087,0.04744478687644005,-0.022275930270552635,0.026955878362059593,0.015136649832129478,0.011718177236616611,-0.05290450155735016,-0.0032224361784756184,-0.02006680704653263,0.014883873984217644,0.02630067802965641,-0.015404189005494118,-0.05156337097287178,-0.037921641021966934,0.06396450847387314,0.014557324349880219,0.025401553139090538,0.03313916176557541,0.015239173546433449,0.02416696585714817,0.033388856798410416,0.03252502530813217,-0.026527676731348038,-0.037026386708021164,0.038631830364465714,0.0037273054476827383,0.013496683910489082,0.02490861527621746,0.027915161103010178,-0.009953844361007214,-0.04009585082530975,0.0597987025976181,-0.029569845646619797,-0.029951700940728188,0.030696513131260872,0.05625663697719574,0.0008339069900102913,-0.009514141827821732,-0.04798009246587753,0.022800792008638382,0.003902570577338338,-0.03784257918596268,0.057542894035577774,0.0188849288970232,-0.007974387146532536,-0.0309971421957016,-0.03339302912354469,-0.007821882143616676,0.026251627132296562,0.017315218225121498,0.009101194329559803,-0.006601029075682163,0.0386853851377964,0.018733888864517212,-0.014025942422449589,0.019614867866039276,0.07021747529506683,0.06472852826118469,0.026362644508481026,0.01602783612906933,0.047897737473249435,0.040772829204797745,0.023908142000436783,0.016291549429297447,0.033306628465652466,-0.01108634565025568,-0.018375810235738754,-0.07225629687309265,0.006056904327124357,-0.026591474190354347,-0.008482306264340878,-0.02737337350845337,-0.07843637466430664,-0.030977649614214897,-0.0516037717461586,-0.018714286386966705,-0.00738963857293129,-0.02206646464765072,0.006770335137844086,-0.04078476130962372,0.058540258556604385,0.0025237933732569218,0.044696372002363205,-0.025088423863053322,-0.04843674600124359,-0.008603258989751339,0.08285003155469894,-0.004521056078374386,0.014516442082822323,0.04266272485256195,-0.01613149791955948,0.03391082212328911,-0.009442328475415707,-0.04287037253379822,-0.023203272372484207,-0.0003662114031612873,-0.018408717587590218,-0.033042050898075104,0.00456843338906765,0.043506912887096405,0.024325447157025337,0.025379110127687454,0.029852187260985374,0.02140180394053459,-0.013681067153811455,-0.011512413620948792,-0.012239264324307442,0.04759872332215309,-0.033976420760154724,-0.031673554331064224,0.012830093502998352,0.00459847180172801,0.017985893413424492,-0.0020552282221615314,-0.07944250851869583,-0.03870346024632454,-0.030711129307746887,-0.030854614451527596,0.07121095806360245,-0.12179095298051834,0.021385591477155685,-0.08140311390161514,-0.020038897171616554,-0.08326052874326706,-0.004586341790854931,-0.03011547587811947,0.005068662576377392,0.038752272725105286,-0.020602762699127197,-0.03371276706457138,-0.02549404464662075,-0.025940118357539177,0.000747046316973865,-0.07749543339014053,0.0459023118019104,-0.001573606743477285,0.06317634880542755,-0.028447838500142097,0.0437934547662735,-0.0015395012451335788,-0.01915951631963253,-0.06458543986082077,0.018559761345386505,-7.921960059320554e-05,-0.03719143569469452,-0.003402539761736989,-0.004595457576215267,-0.04066869989037514,0.020927365869283676,-0.03338232263922691,-0.0041849142871797085,-0.01716766133904457,0.07794128358364105,0.01666395179927349,-0.015336728654801846,-0.021703027188777924,-0.0011118082329630852,-0.006429753731936216,-0.04594023898243904,0.024176020175218582,0.003657352179288864,-0.01522129401564598,-0.022809069603681564,-0.044084712862968445,-0.012615435756742954,-0.008051453158259392,-0.012852003797888756,0.012863186188042164,0.03246579319238663,0.08529260754585266,0.0021757862996309996,-0.021522600203752518,-0.01084996573626995,-0.02864123322069645,0.09306938201189041,-0.0879502147436142,0.007191288284957409,0.03491606563329697,-0.05084189027547836,-0.031238842755556107,0.01036535482853651,0.005335553549230099,-0.02081075683236122,-0.004070539493113756,0.01817786693572998,-0.011288500390946865,-0.04516887292265892,-0.025140604004263878,0.05115044489502907,0.021753234788775444,0.07561925798654556,0.03516659140586853,-0.10609830170869827,-0.007218669168651104,0.018094830214977264,-0.0108798798173666,-0.025261761620640755,0.028676997870206833,-0.054831042885780334,-0.00309947831556201,-0.03815606236457825,0.06246813386678696,-0.06979882717132568,-0.01945076882839203,-0.02141306921839714,-0.0173985306173563,0.0264787208288908,0.027105974033474922,0.06692370027303696,0.04390587657690048,0.012691286392509937,0.008920351043343544,0.005193160846829414,0.0072716595605015755,-0.01602279022336006,0.016654405742883682,0.039546072483062744,-0.04781203344464302,0.027624309062957764,-0.014106198213994503,-0.014421463944017887,-0.02368893474340439,-0.005936574190855026,0.010917868465185165,-0.008845712058246136,-0.003936785738915205,-0.011286042630672455,-0.016749080270528793,0.001581032876856625,0.012466978281736374,-0.029924437403678894,-0.05224227532744408,-0.0170857235789299,0.008883493952453136,0.0908430740237236,-0.008800515905022621,0.006237279623746872,0.02213442511856556,0.05532804876565933,0.007131200283765793,0.007828015834093094,0.002688114996999502,0.03372867405414581,0.0025299254339188337,0.030453072860836983,0.009573723189532757,-0.03253395855426788,0.00595546280965209,-0.02014000341296196,0.04389084503054619,0.08943638950586319,0.03876277804374695,-0.010187065228819847,0.06779397279024124,-0.01852376200258732,0.01396587397903204,-0.008902383036911488,0.006575954146683216,0.017258478328585625,-0.0038165785372257233,-0.07461149245500565,0.061047494411468506,-0.021104568615555763,-0.006629416719079018,-0.02870291657745838,-0.013392843306064606,0.043240517377853394,-0.03642522171139717,0.02950793318450451,0.014664786867797375,0.02142062596976757,-0.09014835208654404,0.0693097710609436,-0.06442620605230331,0.07665068656206131,0.04981005936861038,-0.031177470460534096,-0.017107708379626274,-0.023524323478341103,0.01711161993443966,-0.008839800022542477,-0.06432228535413742,0.05147170275449753,-0.028913570567965508,-0.03894255310297012,-0.0011337257456034422,0.0186560470610857,0.04621896147727966,-0.036662813276052475,-0.03881433606147766,-0.020983384922146797,-0.022226035594940186,0.021739564836025238,0.04898710921406746,0.06375826150178909,-0.04757732152938843,-0.06040417030453682,-0.030016429722309113,0.08535479009151459,0.051128089427948,0.040933530777692795,0.049772799015045166,-0.02951158583164215,0.017149802297353745,-0.04141676053404808,0.041551295667886734,0.0036356665659695864,0.00508066825568676,-0.02659779228270054,0.07416914403438568,-0.07277901470661163,-0.019776146858930588,0.056653592735528946,-0.03624063357710838,-0.020959429442882538,0.06868968158960342,0.035363152623176575,-0.04710262641310692,-0.017689472064375877,-0.0005399960791692138,-0.047818057239055634,-0.022226009517908096,-0.007514065597206354,0.014370808377861977,0.012370040640234947,-0.016933705657720566,-0.013521001674234867,-0.00014674784324597567,-0.01020332146435976,-0.020501375198364258,-0.05912155285477638,0.04972643032670021,0.022240178659558296,-0.0404210202395916,0.031048882752656937,-0.007386891636997461,-0.03524461016058922,-0.05751996859908104,0.016221389174461365,0.044715262949466705,-0.069728322327137,0.0650608241558075,0.052090082317590714,-0.025769012048840523,0.05195315554738045,0.046764880418777466,0.0017639714060351253,0.04821586236357689,0.03815300017595291,0.017385225743055344,-0.035352956503629684,-0.05615590885281563,-0.005780440289527178,-0.014282053336501122,0.010873246937990189,0.05435742065310478,0.04429491236805916,-0.023187503218650818,-0.018497278913855553,-0.008528369478881359,0.040978819131851196,-0.058896563947200775,0.00845257192850113,0.0008888269076123834,0.060900382697582245,-0.01386773120611906,-0.014673484489321709,0.0060422662645578384,-0.01583676226437092,0.05315309017896652,-0.0062170992605388165,0.006251407787203789,-0.014189822599291801,0.005264658946543932,0.03722802922129631,0.013504274189472198,-0.040587566792964935,-0.018746471032500267,-0.027592042461037636,0.031697340309619904,0.030907999724149704,-0.0011822378728538752,-0.009320585988461971,-0.0169230867177248,0.004076805431395769,-0.005171984899789095,0.04191545769572258,0.007852772250771523,-0.02782035805284977,0.041703902184963226,-0.016363823786377907,0.0027149012312293053,0.05550486594438553,-0.04648805037140846,0.021227406337857246,0.039321620017290115,-0.04807481914758682,0.05003737658262253,-0.024125659838318825,-0.027318701148033142,0.06546677649021149,-0.027424786239862442,-0.03185275197029114,-0.017231939360499382,-0.0401071198284626,0.03430592641234398,-0.005452439188957214,-0.004796660505235195,-0.08276146650314331,-0.028113970533013344,-0.03881048411130905,-0.006711198948323727,0.0030284251552075148,0.05339060351252556,0.0022991232108324766,-0.03133071959018707,0.02776048146188259,-0.010069123469293118,-0.011742522940039635,-0.011736113578081131,-0.06440088897943497,0.005341995507478714,0.0038521846290677786,0.09363709390163422,0.031500548124313354,0.013318849727511406,0.010852014645934105,-0.004436817020177841,0.003819802077487111,0.0007806355715729296,-0.03663738816976547,0.012955539859831333,0.01444614864885807,0.02525453455746174,0.01858671009540558,0.013987269252538681,-0.02624567598104477,0.024084780365228653
car,0.004526897799223661,-0.046321749687194824,-0.04854460805654526,-0.0477285198867321,-0.008440949954092503,0.016337722539901733,0.005675709340721369,0.026178855448961258,0.01856202818453312,0.02303364686667919,0.008944980800151825,-0.005980874411761761,-0.011131473816931248,-0.005628562998026609,0.017821207642555237,-0.012130698189139366,-0.0012868699850514531,-0.013645404018461704,0.008633035235106945,-0.01755964756011963,-0.014295345172286034,0.02311534248292446,-0.018275344744324684,0.022601405158638954,0.006769896950572729,-0.04232719540596008,0.052566710859537125,-0.06713252514600754,-0.00446100439876318,0.016653573140501976,-0.07907720655202866,-0.004809570964425802,-0.061708714812994,0.026522301137447357,0.021555617451667786,-0.003415255807340145,0.03333961218595505,-0.0022235277574509382,0.038947947323322296,0.029428808018565178,0.019828708842396736,-0.020420895889401436,-0.06680125743150711,-0.038879066705703735,0.040767136961221695,-0.03665954992175102,0.05941101536154747,-0.0242178775370121,0.007104141637682915,-0.07946725189685822,0.05600862577557564,-0.007943404838442802,0.05005880445241928,-0.03725779801607132,-0.006792168598622084,-0.020533571019768715,0.04250901937484741,-0.010290617123246193,-0.00634765112772584,-0.01002372894436121,0.017764190211892128,0.03354678303003311,-0.01726565696299076,0.0805944874882698,-0.023715518414974213,0.017319871112704277,-0.05491701886057854,0.027376139536499977,0.001335271168500185,-0.035626430064439774,-0.016374044120311737,-0.030403051525354385,0.032735247164964676,-0.023842737078666687,-0.02539753168821335,-0.1252993941307068,-0.04105627164244652,-0.0097171226516366,-0.005537698976695538,-0.0004331694799475372,0.0010356901912018657,-0.07247939705848694,-0.06904701143503189,-0.04346933215856552,-0.08420152217149734,0.029492422938346863,-0.05411000922322273,0.0048728277906775475,0.03492153435945511,0.019588343799114227,-0.018783506006002426,-0.0056339455768466,0.014259708113968372,-0.10095452517271042,0.0026659020222723484,0.0626508891582489,0.0012112268013879657,-0.0040299734100699425,0.011271277442574501,-0.0672064945101738,0.002201227005571127,-0.02834565006196499,-0.009240230545401573,0.011429504491388798,0.04528602957725525,0.025877811014652252,0.005871312692761421,0.011650092899799347,-0.002475453307852149,0.03647670894861221,-0.03463122621178627,0.01241762563586235,-0.008813190273940563,-0.041594650596380234,0.010537092573940754,0.013202013447880745,0.016343725845217705,0.06676919013261795,0.018408523872494698,0.0279401782900095,0.003789905458688736,-0.018465513363480568,0.06645812094211578,0.008491355925798416,0.022419285029172897,0.04729311913251877,-0.019073642790317535,0.024231746792793274,0.035702183842659,0.028090722858905792,-0.03684179112315178,-0.02928173914551735,0.0026946580037474632,0.03398789465427399,0.10383310914039612,0.049232613295316696,0.040094517171382904,0.0320037305355072,0.04244941845536232,-0.0012099472805857658,-0.029304811730980873,0.001824924722313881,-0.03042127937078476,0.05047958344221115,-0.012086616829037666,0.04454972967505455,-0.029449764639139175,-0.038258686661720276,0.016553323715925217,-0.006033831741660833,-0.0025167593266814947,0.008987639099359512,-0.03316255286335945,0.04476647078990936,0.09268379211425781,0.007786592002958059,-0.03947063162922859,0.0414869524538517,0.018999958410859108,0.04464435949921608,0.024089276790618896,0.02390151470899582,0.021813396364450455,0.03503189980983734,-0.05790878087282181,-0.0018156400183215737,-0.016481151804327965,0.03756083548069,0.038016047328710556,0.016916614025831223,0.009289796464145184,0.01030077412724495,-0.03779303655028343,-0.06686148047447205,-0.026547273620963097,-0.08492148667573929,-0.01686650700867176,-0.01817161589860916,0.002403767080977559,-0.035873908549547195,-0.014582875184714794,-0.03296364098787308,-0.0033084803726524115,0.0010382711188867688,0.01281606126576662,-0.03376633673906326,0.07634443044662476,0.0016549148131161928,-0.04519603028893471,-0.032908592373132706,-0.027959754690527916,-0.030448218807578087,-0.028140565380454063,-0.013897177763283253,-0.007416051346808672,0.02360878325998783,-0.03035677596926689,0.02592245489358902,0.009505236521363258,-0.030351703986525536,-0.0007379820453934371,0.0758640244603157,-0.005310714710503817,0.004440660122781992,0.02563990093767643,-0.02107284776866436,0.062021005898714066,-0.07477548718452454,0.015182691626250744,0.010075854137539864,-0.038002774119377136,-0.011010502465069294,-0.05571884289383888,0.03723226860165596,0.033039119094610214,-0.00995380338281393,0.03005254454910755,0.030079776421189308,-0.006695415824651718,-0.014964509755373001,-0.022461431100964546,-0.024165669456124306,-0.02054147608578205,0.024888277053833008,0.00048158151912502944,0.07274729013442993,-0.05279035121202469,0.010438010096549988,-0.006094964221119881,-0.018594861030578613,0.009307659231126308,0.020039398223161697,0.0006390259950421751,-0.025780921801924706,0.05793428793549538,0.03659152239561081,0.00929892435669899,-0.00735545065253973,-0.0015640535857528448,0.06176188960671425,-0.032549258321523666,0.0531328059732914,0.048671700060367584,0.03783119469881058,-0.05056226626038551,-0.014913585036993027,-0.03616223856806755,0.02104419469833374,-0.035058487206697464,0.00993865542113781,-0.040795911103487015,-0.01604228839278221,0.03871695697307587,0.03940533474087715,-0.02320467308163643,0.040531713515520096,-0.09197196364402771,0.010212885215878487,-0.013728471472859383,0.012115376070141792,0.025673646479845047,0.006322832312434912,-0.018947860226035118,-0.005953976884484291,-0.004820283502340317,0.011330760084092617,0.011419456452131271,-0.02018113248050213,0.01688503660261631,0.02761041186749935,0.018742011860013008,-0.00027148975641466677,0.04641163349151611,-0.0018284224206581712,-0.010531392879784107,0.032240130007267,-0.017836231738328934,0.02599571831524372,0.026154324412345886,-0.010861297138035297,0.01676305942237377,0.016080588102340698,0.04082901030778885,-0.04641177877783775,-0.061362624168395996,0.00045191924436949193,-0.09014836698770523,-0.0022210206370800734,0.04186253249645233,-0.017082026228308678,-0.04829001426696777,-0.0329887717962265,0.011097538284957409,-0.01997065730392933,-0.0416497066617012,0.022713132202625275,-0.031758882105350494,0.025124546140432358,0.04481453448534012,0.028723640367388725,-0.01705893501639366,-0.04146144539117813,-0.011510033160448074,-0.05724306404590607,-0.028058262541890144,0.019009876996278763,0.016189415007829666,-0.027731193229556084,0.022625679150223732,-0.002974502043798566,-0.0008204766199924052,-0.010558504611253738,-0.08525976538658142,0.024009287357330322,0.09434626996517181,0.04380754753947258,-0.023458756506443024,0.03519042953848839,-0.028311867266893387,0.05525762215256691,0.03437647968530655,0.02985142543911934,0.012982357293367386,-0.0018222485668957233,0.003039836883544922,0.01642284169793129,-0.019457317888736725,0.051415301859378815,0.0078394440934062,-0.03341078385710716,-0.04143914207816124,-0.021104177460074425,-0.04751582443714142,0.030522195622324944,-0.0007342575117945671,0.006481699645519257,-0.05908271297812462,0.005418231710791588,-0.0009499400621280074,0.03246641531586647,0.01848364621400833,0.014466379769146442,-0.06166123226284981,-0.051267582923173904,0.044143203645944595,-0.04181990399956703,-0.032116830348968506,0.015737686306238174,0.06400478631258011,0.0016468347748741508,0.026756810024380684,0.06510463356971741,-0.0597904734313488,-0.018315164372324944,0.00811917893588543,-0.06072808429598808,0.015309497714042664,-0.003391193225979805,0.05132792517542839,-0.014855842106044292,0.010015464387834072,0.08162454515695572,0.009040439501404762,-0.01734701544046402,0.0018942594761028886,0.0700211301445961,0.043224312365055084,-0.007389490958303213,-0.024974199011921883,0.029390893876552582,-0.005122587084770203,-0.027622466906905174,-0.01016881875693798,0.006400256417691708,-0.01764083281159401,-0.03216160088777542,-0.028059933334589005,-0.01583431288599968,0.017770901322364807,-0.016297925263643265,-0.010204930789768696,-0.0037886383943259716,0.03156796097755432,0.00235562352463603,-0.01650870218873024,-0.052360910922288895,0.03223709389567375,0.062266718596220016,0.032427385449409485,0.04970253258943558,0.031616292893886566,0.053889065980911255,0.031233370304107666,0.05636569485068321,0.015940792858600616,0.036416102200746536,-0.030989058315753937,-0.04794932156801224,0.04236552119255066,-0.030270574614405632,-0.002730119042098522,0.00016371901438105851,-0.060288965702056885,-0.0024307577405124903,-0.04132930934429169,-0.025532590225338936,-0.007367557846009731,-0.022333486005663872,-0.04623609036207199,-0.020138008520007133,0.060735996812582016,0.036199118942022324,0.021026521921157837,-0.055660031735897064,-0.047537729144096375,-0.014818399213254452,0.0641026720404625,-0.02392120659351349,0.05171779915690422,-0.0049921609461307526,-0.02162538841366768,0.004845055751502514,-0.04810357838869095,-0.03393187001347542,-0.034209322184324265,-0.015174992382526398,-0.0014683468034490943,-0.024485519155859947,-0.021279312670230865,0.012130645103752613,0.07830033451318741,0.032544177025556564,-0.013852501288056374,0.03311767429113388,-0.010789482854306698,-0.08518875390291214,0.016417130827903748,0.03455948457121849,-0.07448291778564453,-0.007199972402304411,-0.034529317170381546,-0.01975307986140251,0.020065750926733017,0.013677146285772324,-0.0679624006152153,-0.029261745512485504,-0.006427981425076723,-0.045832034200429916,0.026673290878534317,-0.085965596139431,-0.014054928906261921,-0.054161377251148224,0.01082701701670885,-0.09739577025175095,-0.005341323558241129,-0.025274502113461494,0.017387529835104942,0.06964430958032608,-0.025720147415995598,0.03663371503353119,-0.038171932101249695,-0.04622846469283104,0.00042592440149746835,-0.029390573501586914,0.0035964681301265955,-0.005107067991048098,0.06814657896757126,0.003897507442161441,0.05443473532795906,0.007188386749476194,-0.0031687337905168533,-0.00491347536444664,0.03962745517492294,0.020454443991184235,-0.04883602261543274,-0.023868095129728317,-0.019515279680490494,-0.03212332725524902,0.02817867510020733,-0.01993388868868351,0.016414545476436615,-3.111630348939798e-06,0.04846492409706116,0.035218410193920135,0.030086543411016464,-3.2880772778298706e-05,0.032135557383298874,-0.03994263708591461,-0.019670074805617332,0.06252293288707733,-0.03207054361701012,-0.018183786422014236,-0.049649059772491455,-0.03843901678919792,-0.02056831493973732,-0.007057140115648508,-0.006440016441047192,0.039774250239133835,0.013516184873878956,0.030603351071476936,-0.022256197407841682,-0.030116476118564606,-0.005370346363633871,0.012947501614689827,0.0227032583206892,-0.08965075016021729,0.01894443854689598,0.027744844555854797,-0.03915818780660629,-0.012930206023156643,0.0023049721494317055,0.03912125527858734,-0.05926911532878876,0.013427529484033585,0.02839535102248192,-0.041705381125211716,-0.006671024486422539,-0.018146907910704613,0.0007715709507465363,0.018686765804886818,0.056283317506313324,0.001088029588572681,-0.10139153152704239,0.002051380230113864,-0.00376594765111804,-0.06641482561826706,0.027368197217583656,0.0012591626727953553,-0.03899005055427551,0.01586003042757511,-0.03855641931295395,0.0729404166340828,-0.07616136223077774,-0.006158421281725168,-0.010234126821160316,-0.00411694310605526,-0.04962589219212532,0.021618103608489037,0.04477792605757713,0.008158745244145393,0.034119121730327606,-0.04409433901309967,0.0038083645049482584,0.013388080522418022,-0.02772247977554798,0.0075232782401144505,0.024664774537086487,-0.11390301585197449,0.03184034675359726,0.03211555629968643,-0.016795653849840164,-0.001588506973348558,0.04903511330485344,-0.023178372532129288,0.03688175231218338,0.06265424191951752,-0.012901671230793,-0.0031790132634341717,-0.02687932178378105,0.0695660263299942,0.017135268077254295,-0.0233028382062912,0.019684217870235443,-0.06201425939798355,0.08627155423164368,0.014087202958762646,-0.023120423778891563,0.04062389209866524,0.06531843543052673,0.014178222045302391,0.02069646492600441,0.05095900967717171,0.0580606572329998,0.015948345884680748,0.04389435052871704,0.023711252957582474,-0.060358528047800064,-0.000777331821154803,-0.019690005108714104,0.00957292877137661,0.06594283133745193,-0.030339675024151802,0.06115656718611717,0.02379510924220085,-0.04977302998304367,0.022856710478663445,-0.00521481316536665,0.013599892146885395,0.025310350582003593,-0.008838431909680367,-0.06211979314684868,0.027120938524603844,-0.01015524473041296,0.024831276386976242,-0.02437027357518673,-0.03430158644914627,0.04663984850049019,-0.007134795654565096,-0.009931955486536026,-0.03278069943189621,0.0060402099043130875,-0.07483690977096558,0.1360013335943222,-0.029515637084841728,0.0129153523594141,0.01992190070450306,-0.0075846570543944836,0.006953069008886814,-0.023577168583869934,0.01762702316045761,0.007298754993826151,-0.03706389293074608,0.018753446638584137,-0.009982752613723278,-0.017608338966965675,0.016837194561958313,0.03918134793639183,0.03238818049430847,-0.029205841943621635,-0.036328960210084915,-0.01587478443980217,-0.027462534606456757,0.023852374404668808,0.011425142176449299,0.07252122461795807,-0.06390205770730972,-0.01550429780036211,-0.0473039411008358,0.05824403837323189,0.055573444813489914,-0.005092529114335775,0.03649790212512016,0.019770819693803787,-0.016831038519740105,-0.020295793190598488,0.026044847443699837,0.006724846083670855,-0.0022287063766270876,0.024010635912418365,0.004721025470644236,-0.06587513536214828,-0.005998820532113314,0.08413973450660706,0.012408245354890823,-0.019680986180901527,0.07992834597826004,0.006126733496785164,-0.07907441258430481,-0.022920088842511177,0.00733264209702611,-0.08043593168258667,-0.020708240568637848,-0.0009800323750823736,0.0110448207706213,0.007516325917094946,0.007976026274263859,-0.053855784237384796,-0.008944643661379814,0.030332446098327637,-0.020753273740410805,-0.015579824335873127,0.04155069962143898,-0.015044468455016613,-0.0017641381127759814,-0.0006369814509525895,0.020400473847985268,-0.09674914926290512,-0.07162832468748093,0.0025800163857638836,0.03637152910232544,-0.07777289301156998,0.09944465756416321,0.033991966396570206,-0.025020282715559006,0.014608441852033138,0.040658146142959595,-0.03642687946557999,0.03477483242750168,-0.021514277905225754,0.043472662568092346,0.009798789396882057,-0.021142592653632164,-0.02617826871573925,-0.009190572425723076,0.0009538528393022716,0.02259632758796215,0.04856603592634201,0.009552152827382088,-0.006093274801969528,-0.003716974053531885,0.0381489023566246,-0.040688131004571915,-0.006157192401587963,0.002020733430981636,0.08588771522045135,-0.013368459418416023,-0.0034578784834593534,-0.04261951148509979,-0.004718589596450329,0.017027204856276512,-0.019003668799996376,0.011394546367228031,-0.019563624635338783,-0.017976973205804825,-0.007907804101705551,0.031428102403879166,-0.009238631464540958,0.02221667766571045,0.007991531863808632,0.03187672048807144,0.0016055494779720902,-0.027974912896752357,-0.03082634136080742,0.01356144156306982,0.009252657182514668,-0.034896120429039,0.02487119846045971,0.007136933039873838,0.009602842852473259,0.049609847366809845,-0.02797941118478775,0.0010607402073219419,0.05939577892422676,-0.06157203018665314,0.0009066193015314639,0.012795965187251568,-0.0015713460743427277,0.021105939522385597,-0.06394025683403015,-0.053815484046936035,0.048380061984062195,-0.029536014422774315,-0.003638646099716425,0.007741852197796106,-0.03979107737541199,0.025294888764619827,-0.0058484794571995735,0.030915934592485428,-0.019105978310108185,-0.04917360097169876,-0.016197780147194862,0.009428893215954304,0.0034770474303513765,0.0582379475235939,0.011396813206374645,-0.05251111835241318,0.0010543490061536431,-0.011973927728831768,-0.0016871289117261767,0.02715071104466915,-0.0491168238222599,0.02809055708348751,-0.02106616459786892,0.03256400674581528,0.029364418238401413,0.030981017276644707,0.004557557869702578,-0.0374777726829052,0.014860764145851135,0.0013617192162200809,-0.05371339991688728,0.02762957289814949,0.034588608890771866,0.0017848123097792268,0.019396834075450897,-0.01721031963825226,-0.02018568105995655,0.027329545468091965
house,0.025234632194042206,-0.02755916304886341,-0.061915770173072815,0.009063377045094967,0.05689612776041031,0.03228145092725754,-0.01098988950252533,-0.008830933831632137,0.011784243397414684,0.03824669495224953,0.009270606562495232,0.0068911174312233925,-0.007069816812872887,-0.0371239073574543,0.04263089597225189,-0.02404852770268917,0.012068248353898525,0.02476457692682743,0.024857137352228165,0.024922359734773636,0.012982516549527645,-0.007549145724624395,-0.011062092147767544,0.01714976318180561,0.0009687718120403588,-0.040652912110090256,-0.0022536152973771095,-0.05933518335223198,-0.02222631685435772,0.03428491950035095,-0.06729099899530411,-0.04897744953632355,-0.11175315827131271,0.010495368391275406,0.020899372175335884,-0.0419699065387249,0.024181444197893143,-0.017304034903645515,0.04097406938672066,0.029239360243082047,0.05122080072760582,-0.03887991979718208,-0.02337193302810192,-0.018056508153676987,0.05056139454245567,-0.010322704911231995,0.03505644202232361,0.010034129954874516,0.009231171570718288,-0.08060349524021149,0.058083925396203995,-0.007840563543140888,0.042454738169908524,-0.02005222626030445,0.005603359080851078,0.012098724953830242,0.022423692047595978,0.009576862677931786,-0.06813239306211472,-0.014719358645379543,0.033304374665021896,0.05944598838686943,0.014841410331428051,0.05759537220001221,-0.01885305345058441,-0.03582597151398659,-0.07047129422426224,0.015208794735372066,0.01478285901248455,-0.021572746336460114,0.0076469192281365395,-0.02622721903026104,0.010547516867518425,-0.028385426849126816,-0.0026329790707677603,-0.1006089299917221,-0.04204866290092468,0.02681075781583786,-0.026007117703557014,0.0019741065334528685,0.012285151518881321,-0.0730382576584816,-0.03992758318781853,-0.058941472321748734,-0.062140192836523056,0.0422806441783905,-0.05093059316277504,0.004570336546748877,0.017024828121066093,0.04306469112634659,0.0009041366865858436,-0.01847331039607525,0.024823948740959167,-0.0659986138343811,-0.020222283899784088,0.05302809551358223,-0.03259754925966263,0.009859872981905937,0.010260217823088169,-0.04580499604344368,-0.025586003437638283,0.00016226082516368479,0.00499724643304944,-0.004005388356745243,0.023357482627034187,0.01906505972146988,0.005002621561288834,0.015477348119020462,-0.03670772910118103,0.013401049189269543,-0.03378862142562866,0.01163292396813631,-0.01297792699187994,-0.01758686639368534,0.0004384486237540841,0.027979057282209396,-0.03821921348571777,0.08506122976541519,0.01429068110883236,0.03929334506392479,-0.023958303034305573,-0.019990969449281693,0.045606259256601334,0.019573455676436424,0.009346839971840382,0.049742408096790314,0.0054143276065588,0.04222896322607994,0.043103210628032684,0.03739574924111366,-0.033629950135946274,-0.050754476338624954,0.013274764642119408,9.100895113078877e-05,0.10282875597476959,0.04138115420937538,0.05256976932287216,0.022749802097678185,0.06917784363031387,-0.013977433554828167,-0.012470086105167866,-0.0016580630326643586,-0.005048216320574284,0.03160084784030914,-0.030590176582336426,0.0401613749563694,0.0012980327010154724,-0.050521913915872574,0.009868351742625237,0.0010330581571906805,-0.01610315591096878,-0.011382760480046272,-0.04872239753603935,0.05263197049498558,0.09745655208826065,0.041447363793849945,-0.009160046465694904,0.058570001274347305,-0.017429517582058907,-0.008250026032328606,0.04031030833721161,-0.007741343695670366,-0.01264587789773941,0.05947738140821457,-0.05188266560435295,0.012732353992760181,0.014109425246715546,0.008926386013627052,0.02706531248986721,0.05454571917653084,-0.011298834346234798,0.01483919471502304,-0.04244707152247429,-0.0487213134765625,-0.07390718162059784,-0.07857949286699295,-0.03278881311416626,-0.02736818976700306,0.0002347240806557238,-0.05519963055849075,0.005796556361019611,-0.010582217015326023,0.029518960043787956,0.03900891914963722,0.026988519355654716,0.020097121596336365,0.022716099396348,-0.025732526555657387,-0.054135147482156754,-0.03234068304300308,-0.02762167900800705,-0.03496328368782997,-0.034390926361083984,0.005315362010151148,-0.01837873086333275,0.03614581748843193,-0.05643904581665993,0.03333333879709244,0.011826196685433388,-0.00015928549692034721,0.019073156639933586,0.06903518736362457,-0.009145000949501991,0.014505949802696705,0.03566209226846695,-0.014712263830006123,0.10329882055521011,-0.04381193593144417,0.01574465073645115,0.013410741463303566,-0.015500878915190697,-0.009088697843253613,-0.022596487775444984,0.04785993695259094,0.00043960759649053216,-0.046104177832603455,0.048496637493371964,0.03378763422369957,-0.010061643086373806,-0.006356155965477228,-0.017462845891714096,0.023202773183584213,-0.013938131742179394,-0.018223697319626808,0.00907523650676012,0.02661132998764515,-0.049204230308532715,0.027481472119688988,-0.027269886806607246,-0.04190921038389206,-0.03425133600831032,0.0503091923892498,0.009735655039548874,-0.01432071253657341,0.052619706839323044,-0.05825982242822647,-0.0009498890140093863,-0.011676955036818981,0.010639244690537453,0.05398626625537872,-0.019165262579917908,0.002680434612557292,0.050134096294641495,0.042743586003780365,-0.05552217364311218,-0.005415711551904678,-0.004624374210834503,0.04621249437332153,-0.03563029319047928,0.014858284965157509,-0.052463144063949585,-0.044051963835954666,-0.026882579550147057,0.03538604825735092,-0.07866217195987701,0.021767590194940567,-0.05121869966387749,0.017618568614125252,-0.04755041003227234,0.020296849310398102,0.0765363946557045,-0.017135221511125565,-0.018749047070741653,0.01070465799421072,-0.0013653297210112214,0.020941808819770813,0.03535793721675873,-0.020229998975992203,-0.01159420982003212,0.05756695196032524,0.013967620208859444,-0.016986867412924767,0.05049667879939079,0.029904579743742943,-0.027854060754179955,0.0543287955224514,0.009251521900296211,0.006568206008523703,0.03371446579694748,-0.0016062748618423939,0.02542220428586006,0.02782990224659443,0.033863335847854614,-0.019791826605796814,-0.017647739499807358,0.004726157523691654,-0.04376218095421791,0.024680912494659424,0.023274028673768044,-0.01608746312558651,-0.03491578251123428,-0.0013239107793197036,-0.05040682107210159,-0.0037582793738693,-0.058832161128520966,0.015133270993828773,-0.04178433492779732,0.05208365619182587,0.056803904473781586,-0.002865731716156006,0.05117030069231987,-0.05423939600586891,0.031136058270931244,-0.03206775709986687,0.059240344911813736,0.06084993854165077,0.0024223525542765856,-0.016383109614253044,0.023705221712589264,-0.0003316064830869436,-0.041042860597372055,0.010081789456307888,-0.04842972755432129,0.041854579001665115,0.07999958097934723,0.006053279619663954,-0.005187538452446461,-0.013713759370148182,-0.018345171585679054,0.0735069066286087,0.05665847659111023,0.02958977222442627,0.06913087517023087,-0.0026745949871838093,0.04387158155441284,0.032950326800346375,-0.008469232358038425,0.06976118683815002,-0.0013589542359113693,-0.01536143384873867,-0.004251439124345779,-0.022268205881118774,-0.04227316007018089,0.05250962823629379,0.03559531271457672,0.006979233119636774,-0.0670861303806305,0.008284419775009155,-0.015314306132495403,0.034460633993148804,-0.026866484433412552,0.019484903663396835,-0.05046163499355316,-0.06799836456775665,0.034439075738191605,-0.055803876370191574,-0.018853800371289253,-0.013615287840366364,0.08330725133419037,0.02572738006711006,-0.003970240708440542,0.054356999695301056,-0.061314575374126434,-0.00105389638338238,0.0031073358841240406,-0.026692833751440048,0.049074262380599976,-0.007489809300750494,0.06297053396701813,-0.019174659624695778,-0.0063718450255692005,0.07478036731481552,0.01804340071976185,-0.006302941590547562,0.0038111452013254166,0.03514126315712929,0.009820671752095222,-0.011593064293265343,-0.008993065916001797,0.03256535157561302,0.002631498035043478,-0.042745303362607956,0.03548049181699753,-0.019137900322675705,-0.013243832625448704,-0.024052457883954048,-0.031148847192525864,-0.022114360705018044,0.016661107540130615,-0.005423589143902063,-0.006454878952354193,-0.009039447642862797,0.0039781974628567696,0.01997901313006878,0.034536201506853104,-0.05673439800739288,0.0515131875872612,0.06451141089200974,0.00539329182356596,0.02866639383137226,0.04466122388839722,-0.004827613011002541,0.08343953639268875,0.03180322423577309,-0.00784379430115223,0.004056273493915796,-0.017154233530163765,-0.06035296246409416,0.03432360291481018,-0.03930283710360527,0.0044259559363126755,-0.007029011379927397,-0.011472566053271294,-0.018297836184501648,-0.0490461066365242,-0.010636232793331146,0.004216424189507961,-0.029232066124677658,-0.03984253481030464,-0.027626823633909225,0.03601763769984245,0.04188971593976021,0.03279714286327362,-0.03365766629576683,-0.05873268097639084,-0.027406275272369385,0.060287993401288986,-0.018864095211029053,0.04333224147558212,-0.024005623534321785,-0.031894706189632416,0.04897850379347801,-0.006314815487712622,-0.02990267053246498,-0.023431872949004173,-0.008104913868010044,0.004135744646191597,-0.010418902151286602,-0.008959116414189339,-0.02110316976904869,0.04430757090449333,0.024357140064239502,-0.017897313460707664,0.00795939564704895,-0.003446916351094842,-0.1035589873790741,0.05267487093806267,0.013317945413291454,-0.038116101175546646,0.03837652504444122,0.004459299612790346,0.002819935791194439,0.029613204300403595,0.008405567146837711,-0.0855875164270401,-0.026664063334465027,-0.021821821108460426,0.007820808328688145,0.005196921527385712,-0.08967118710279465,0.007684327196329832,-0.06795932352542877,-0.014029600657522678,-0.06515263020992279,0.010660042054951191,-0.027322594076395035,0.004925741348415613,0.08639565855264664,0.0017928387969732285,-0.007223095279186964,-0.05976080521941185,-0.019733360037207603,-0.022513490170240402,-0.07221166044473648,0.025750325992703438,-0.0239004734903574,0.05087079107761383,0.020025722682476044,0.025816528126597404,0.01755080185830593,0.004171007312834263,-0.04521507769823074,0.03214212507009506,-0.004256055224686861,-0.04058215767145157,0.005573451053351164,-0.04107268527150154,0.007052848115563393,0.0035909460857510567,-0.0522012785077095,0.015174994245171547,0.004255631007254124,0.05135667324066162,0.018211346119642258,0.026043565943837166,0.0016894345171749592,0.024307820945978165,-0.039903413504362106,-0.04017283394932747,0.05328666791319847,-0.02926299348473549,-0.024310402572155,-0.04652995243668556,-0.03337806463241577,-0.011033331044018269,0.019055496901273727,-0.02296045795083046,-0.0013057297328487039,0.021125782281160355,0.007883124053478241,0.0007065578829497099,-0.02947293408215046,-0.0047804019413888454,0.0026608556509017944,0.0636090412735939,-0.09766054898500443,0.008775110356509686,0.036772578954696655,0.014648809097707272,-0.00013107711856719106,0.0109694330021739,0.010833155363798141,-0.05683618783950806,-0.02425403520464897,0.07374392449855804,0.0011635733535513282,0.0016890250844880939,0.010585284791886806,0.00715165538713336,-0.011374701745808125,0.07002007961273193,-0.014549138955771923,-0.08648395538330078,-0.0007440561894327402,0.015432251617312431,-0.06788064539432526,-0.013472381047904491,0.02769322507083416,-0.039289336651563644,-0.0005421072128228843,-0.02611410617828369,0.10132797807455063,-0.11895199120044708,-0.03015027567744255,-0.008460626937448978,0.024556918069720268,-0.034450311213731766,0.03974396735429764,0.029525151476264,-0.007713454309850931,0.02782038040459156,-0.013053790666162968,0.041836682707071304,0.03293729946017265,-0.04737862944602966,0.03862454742193222,0.0034185550175607204,-0.07768867164850235,-0.00672944774851203,0.018324416130781174,-0.019840501248836517,-0.012798301875591278,0.013669922016561031,-0.013573975302278996,0.014439284801483154,-0.01861143484711647,-0.021775908768177032,-0.02210419438779354,0.016669871285557747,0.020535262301564217,-0.02362317405641079,-0.03565745800733566,-0.009442884474992752,-0.04462626576423645,0.07647483795881271,0.02263513393700123,-0.011246860958635807,0.023017875850200653,0.056237634271383286,-0.008525206707417965,-0.0361805260181427,0.020847205072641373,0.013325918465852737,0.025713220238685608,-0.002636405173689127,0.0075987218879163265,-0.03841473534703255,-0.022568928077816963,-0.020142344757914543,-0.003453827230259776,0.03251519799232483,-0.00846217479556799,0.0011603846214711666,0.019061462953686714,-0.03250398114323616,0.050518620759248734,0.0016169105656445026,-0.007442130707204342,0.019715741276741028,0.001562896533869207,-0.040474783629179,0.015942903235554695,-0.05003085359930992,0.018552329391241074,0.0016055701998993754,-0.018840285018086433,0.04363540560007095,-0.026720114052295685,-0.050834763795137405,0.014167450368404388,-0.007216594181954861,-0.09751376509666443,0.08776819705963135,-0.01881648227572441,0.027202988043427467,-0.018405234441161156,0.016168322414159775,0.001446526381187141,-0.004965272732079029,0.03366025909781456,-0.023842869326472282,-0.04247307404875755,-0.012769472785294056,-0.0059288241900503635,0.0012099583400413394,-0.010368655435740948,0.03761141374707222,0.025010274723172188,0.0002937579993158579,-0.04968278482556343,0.018119074404239655,0.0038370329421013594,0.02558029815554619,0.009978063404560089,0.03591246157884598,0.010035033337771893,-0.008765618316829205,-0.045440420508384705,0.06217486783862114,0.05359536409378052,0.01687822863459587,0.04031967744231224,-0.009904210455715656,-0.012348506599664688,-0.011499831452965736,0.04235091060400009,0.013214103877544403,-0.03431526944041252,0.010077829472720623,0.015120960772037506,-0.054706864058971405,0.001765322289429605,0.06034490838646889,0.02794097177684307,-0.0163711104542017,0.06581521779298782,-0.007641904521733522,-0.028554631397128105,-7.354286935878918e-05,0.019178152084350586,-0.02394690550863743,-0.018279992043972015,0.0025180678348988295,0.008811184205114841,-6.118805322330445e-05,0.005170031450688839,-0.034580573439598083,0.0038257029373198748,0.05316905677318573,-0.016982434317469597,-0.04176925867795944,0.023800451308488846,0.04594586789608002,0.024009840562939644,-7.8041703091003e-05,-0.010027075186371803,-0.09782875329256058,-0.06236624717712402,-0.02735350839793682,0.012574643827974796,-0.09651331603527069,0.028626661747694016,0.07171963900327682,-0.01942870207130909,0.01448995154350996,0.07140778005123138,-0.028699513524770737,0.03745487704873085,0.01688222400844097,0.03705854341387749,-0.029894201084971428,-0.04202815145254135,0.018755393102765083,-0.011736893095076084,0.004391312133520842,-0.04574158042669296,0.05793868750333786,-0.006024632602930069,0.018679620698094368,0.005490081384778023,0.009819895960390568,-0.04648476466536522,0.006954662501811981,0.010551071725785732,0.07644010335206985,-0.019481776282191277,0.01305136177688837,-0.024639442563056946,-0.0141788674518466,0.08756475150585175,0.007035732269287109,-0.038565587252378464,-0.031966932117938995,-0.0035235146060585976,-0.028085283935070038,0.014970861375331879,-0.0464712418615818,0.03386606648564339,-0.03589995950460434,0.007859647274017334,0.014403055422008038,0.0030310279689729214,-0.028086980804800987,0.050056882202625275,0.028362998738884926,-0.01289634220302105,-0.005913283675909042,0.014592899940907955,-0.0349569134414196,0.07416820526123047,0.007265756372362375,-0.0064434027299284935,0.07197101414203644,-0.04390930011868477,-0.03176390007138252,0.003880825126543641,0.020979277789592743,0.010981978848576546,-0.04112863913178444,-0.07321945577859879,0.08722172677516937,-0.00951176043599844,0.0003949450619984418,-0.0005985585739836097,-0.05916067212820053,0.04083487391471863,-0.014064515009522438,0.0157790407538414,-0.04125429317355156,-0.048740554600954056,-0.033810582011938095,-0.0016962471418082714,-0.00017134839436039329,0.0683736652135849,0.0066670142114162445,-0.020202435553073883,0.027003545314073563,-0.027084393426775932,-0.015697836875915527,-0.0049860854633152485,-0.04663211852312088,0.014529483392834663,-0.03820139169692993,0.059822939336299896,-0.006404064130038023,0.004187489859759808,-0.008096236735582352,-0.03040323406457901,0.010645419359207153,-0.007342621684074402,-0.063558429479599,0.024989262223243713,0.025769511237740517,0.014698478393256664,-0.03947628289461136,0.02113986201584339,-0.010373169556260109,0.03163605183362961
book,0.004555623047053814,-0.0394878089427948,-0.021812407299876213,-0.03588365763425827,0.04397667199373245,-0.007268814370036125,-0.0036542390007525682,0.011313065886497498,0.028258541598916054,0.011930098757147789,0.030292697250843048,-0.01239725761115551,-0.01696995086967945,-0.03469693288207054,0.04472009092569351,0.0016881806077435613,0.01963840238749981,0.028680719435214996,0.022618278861045837,-0.0024131068494170904,-0.001330930390395224,0.05750306695699692,-0.01236213929951191,0.011203504167497158,0.010579722002148628,-0.021623380482196808,0.039895493537187576,-0.08864562213420868,-0.021540364250540733,0.02707342989742756,-0.04394889995455742,0.0031090285629034042,-0.05269523710012436,-0.008928356692194939,0.02190389111638069,-0.03401033207774162,-0.01320695411413908,0.03720279037952423,0.02005976252257824,0.01646752841770649,-0.01670682057738304,-0.048380546271800995,-0.05107178911566734,-0.04176023229956627,0.009334152564406395,-0.008272044360637665,0.048483897000551224,-0.014536648988723755,0.041629914194345474,-0.10075531154870987,0.03831644728779793,0.017364751547574997,0.04275757074356079,-0.05383165180683136,0.02002963051199913,0.005567731335759163,0.07462338358163834,0.03559805080294609,-0.07078515738248825,-0.00914477277547121,-0.006836275570094585,0.053389452397823334,-0.0005861995159648359,0.06592575460672379,-0.01243577804416418,-0.010786392726004124,-0.03758111968636513,0.033743515610694885,0.05049000307917595,-0.05443698540329933,0.004100843798369169,-0.019797654822468758,-0.00453564990311861,-0.010971956886351109,0.004467155784368515,-0.09123769402503967,-0.006416935473680496,0.01906309463083744,-0.007610148750245571,0.015943922102451324,0.006892426870763302,-0.06929469108581543,0.004001419059932232,-0.049855876713991165,-0.07883322983980179,-0.0006179919582791626,-0.031989309936761856,0.07045850157737732,0.05443623289465904,0.047721121460199356,-0.041538216173648834,-0.01857859455049038,0.002517217304557562,-0.0637475848197937,-0.018383167684078217,0.04674035310745239,-0.0607893206179142,0.0129484161734581,-0.008266517892479897,-0.03748667240142822,0.0088412556797266,-0.023844929412007332,0.01722809299826622,-0.024182481691241264,0.0220867358148098,-0.018724350258708,-0.0010401211911812425,0.022867340594530106,-0.022121267393231392,0.032533567398786545,-0.03911234438419342,0.020060891285538673,-0.01590755023062229,-0.047990087419748306,0.013059013523161411,0.024129481986165047,0.0062738326378166676,0.0742952823638916,0.009608818218111992,0.04093680903315544,0.004315763246268034,-0.03072923794388771,0.05394943803548813,0.028720512986183167,0.03576183319091797,0.04786853864789009,0.02977464348077774,-0.006464141421020031,0.054870400577783585,0.005162023939192295,-0.02409861981868744,-0.023593749850988388,0.0010025183437392116,0.03986454755067825,0.06393777579069138,0.04779887944459915,0.05536872521042824,-0.012412558309733868,0.049940019845962524,0.03860831633210182,-0.0022047064267098904,0.00175520742777735,-0.007010560482740402,0.027459608390927315,-0.028465131297707558,0.04694325104355812,-0.015631776303052902,-0.015061997808516026,0.019112924113869667,0.0195030327886343,0.008130657486617565,-0.003588510910049081,-0.04517776891589165,0.04172838106751442,0.07528180629014969,-0.010215669870376587,-0.04690477252006531,0.03621644899249077,0.00808340311050415,0.008052648045122623,0.01756114326417446,0.012529153376817703,0.03284202888607979,0.04438687115907669,-0.060184694826602936,0.00010136147466255352,0.006128926761448383,0.03727170079946518,0.010876629501581192,0.033155519515275955,0.014566746540367603,-0.008906827308237553,-0.025716310366988182,-0.07652188837528229,-0.03547406941652298,-0.05363573133945465,-0.010447508655488491,-0.037936437875032425,-0.02857460267841816,-0.0384952612221241,-0.008798230439424515,-0.03709743171930313,-0.012045182287693024,0.04113415628671646,0.03821742907166481,-0.02972869761288166,0.04971487075090408,-0.00841082539409399,-0.02274763211607933,-0.00018352676124777645,-0.02816808596253395,-0.043775446712970734,-0.03758316487073898,0.006045419257134199,0.004513093736022711,0.05907520651817322,-0.053067032247781754,0.011306398548185825,0.011953791603446007,-0.05401770398020744,-0.009886822663247585,0.07071851938962936,0.007323049008846283,0.0019421855686232448,0.02776182070374489,-0.03372975066304207,0.08046030253171921,-0.08975095301866531,0.004785203840583563,0.002692375797778368,-0.06383906304836273,-0.009014139883220196,-0.026907039806246758,0.044922180473804474,0.043839216232299805,-0.021804125979542732,0.0037200688384473324,0.023275714367628098,-0.009295055642724037,0.004082178231328726,-0.0073403483256697655,-0.0024385089054703712,-0.045191746205091476,0.010825607925653458,0.024799710139632225,0.03825199231505394,-0.048922326415777206,0.038896724581718445,-0.018805265426635742,-0.05760115385055542,0.021113205701112747,0.021121034398674965,-0.003824876854196191,-0.009723763912916183,0.08537960052490234,-0.009415306150913239,-0.005942437797784805,0.029948106035590172,-0.023665836080908775,0.041718412190675735,-0.009692794643342495,0.06536409258842468,0.04848845303058624,0.030824346467852592,-0.0802813470363617,-0.01779332011938095,-0.017677782103419304,0.010931165888905525,-0.017983175814151764,-0.0005043945857323706,-0.017988579347729683,-0.032361194491386414,0.02209380269050598,0.04057002067565918,-0.05784512311220169,0.07632678002119064,-0.050929438322782516,0.01987076923251152,0.018302462995052338,0.001758288824930787,0.0301507618278265,-0.02621174231171608,0.0080390190705657,0.0023445934057235718,-0.030031422153115273,0.030158037319779396,0.021240584552288055,0.0009249759605154395,-0.017976796254515648,0.009872849099338055,-0.007708326913416386,-0.029185274615883827,0.05157835781574249,-0.013835904188454151,-0.012823445722460747,-0.0128546841442585,0.012474889867007732,0.003507049521431327,-0.005222452338784933,-0.030251091346144676,0.008714432828128338,0.03845885768532753,0.023862935602664948,-0.02151472307741642,-0.08829038590192795,0.02605639584362507,-0.05709584802389145,0.008764699101448059,0.045938219875097275,-0.018084364011883736,-0.04391089454293251,-0.021388689056038857,-0.0593433678150177,-0.0044493041932582855,-0.05065116286277771,0.02038460411131382,-0.009621202945709229,0.06346055865287781,0.032616980373859406,0.0013804682530462742,-0.0021553325932472944,-0.026348385959863663,0.0031094111036509275,-0.06563550233840942,0.007777447812259197,0.02482577972114086,0.01303559634834528,-0.04502486437559128,0.020252402871847153,0.019282037392258644,0.0021016208920627832,-0.01684289425611496,-0.038648705929517746,0.05070246756076813,0.09517662227153778,0.05065701901912689,-0.02854972518980503,0.010402712039649487,-0.024640241637825966,0.031000684946775436,0.022128645330667496,0.06126437708735466,0.04883334040641785,0.0004774484841618687,0.008567479439079762,0.02965325489640236,-0.012601572088897228,0.054280851036310196,-0.016643593087792397,-0.03167111426591873,0.002900049788877368,-0.017259614542126656,-0.04878389835357666,0.03797097131609917,-0.02045104280114174,-0.029356177896261215,-0.07515213638544083,-0.01855926774442196,-0.02694174274802208,-0.01869242452085018,0.03697961941361427,0.06292048841714859,-0.040279705077409744,-0.023262804374098778,0.022639883682131767,-0.050444260239601135,0.013554355129599571,0.032149456441402435,0.06711575388908386,0.0142637575045228,0.010100000537931919,0.04352546110749245,-0.08579858392477036,-0.040194690227508545,-0.025849051773548126,-0.052074674516916275,0.04611992463469505,-0.013923205435276031,0.032550472766160965,0.020335499197244644,-0.029748722910881042,0.08315660804510117,-0.013431455008685589,-0.02393980883061886,0.007409544195979834,0.037726446986198425,0.002186751225963235,0.006088912021368742,-0.03470644727349281,0.03158128261566162,-0.006542407441884279,-0.05692638084292412,0.03133058547973633,-0.014002321287989616,-0.002961067482829094,-0.038580723106861115,-0.06433014571666718,-0.038049329072237015,0.039770323783159256,-0.012351947836577892,-0.021318593993782997,-0.02714839205145836,0.03301697224378586,0.04082733020186424,0.011290485970675945,-0.009278930723667145,0.04250327870249748,0.04516315460205078,0.026772817596793175,0.030341077595949173,0.024104133248329163,0.03764549642801285,0.048426300287246704,0.033080700784921646,0.0029816923197358847,0.022552208974957466,-0.027926811948418617,-0.031127363443374634,-0.0006709294975735247,-0.00047401111805811524,-0.004681761376559734,0.0073083871975541115,-0.05884906277060509,-0.024680420756340027,-0.05457810312509537,-0.03552384674549103,0.01316661573946476,-0.028006261214613914,-0.04141782969236374,-0.011530598625540733,0.026699399575591087,0.03976171091198921,0.03833232447504997,-0.05925745144486427,-0.07663936913013458,-0.012496196664869785,0.0792514979839325,-0.00135840626899153,0.02107303775846958,0.0022679991088807583,0.014922810718417168,0.042956870049238205,0.0035183567088097334,-0.015054209157824516,-0.0037890211679041386,0.017052913084626198,-0.004352707881480455,-0.031617723405361176,-0.04002868011593819,0.02269330993294716,0.09774234145879745,0.058475445955991745,-0.03533754125237465,0.028361286967992783,0.005734745413064957,-0.058363236486911774,0.00024189578834921122,0.0028526566457003355,-0.04277704656124115,0.005493649747222662,-0.01582760363817215,0.015889069065451622,0.02285388484597206,0.010964029468595982,-0.04849391058087349,-0.043602414429187775,-0.01806875504553318,-0.05539543181657791,0.012190473265945911,-0.10607590526342392,0.02359190210700035,-0.10868202149868011,0.003971316386014223,-0.11380486935377121,0.015529355965554714,-0.01560316514223814,0.01065272931009531,0.04863373935222626,0.009024223312735558,0.010190257802605629,-0.05214148387312889,-0.019892975687980652,-0.033411767333745956,-0.01634669490158558,0.0280857402831316,-0.014110997319221497,0.050513409078121185,0.004400897305458784,0.030718229711055756,0.02190195582807064,-0.0009152825805358589,-0.0460541732609272,0.007049259729683399,-0.0004938930505886674,-0.027612755075097084,0.0335528589785099,-0.04876922443509102,-0.04625031724572182,0.005743694957345724,-0.04636160284280777,0.01875157095491886,-0.022818556055426598,0.04336847364902496,0.013871263712644577,0.020267585292458534,-0.007975131273269653,0.025659779086709023,-0.042003121227025986,-0.021706124767661095,0.05004625767469406,-0.03159331530332565,-0.004612959921360016,-0.03585132211446762,-0.05639411881566048,-0.007725887931883335,-0.015320605598390102,-0.009113285690546036,-0.005900174845010042,0.03135481849312782,0.04391470551490784,0.03734029829502106,-0.04852069169282913,-0.016296768561005592,0.03474019467830658,0.06539455056190491,-0.09201451390981674,0.025623776018619537,0.06318574398756027,-0.029386227950453758,-0.0008151499787345529,0.015608505345880985,0.020450955256819725,-0.02905324660241604,-0.007188643328845501,0.037157002836465836,-0.03185732290148735,-0.022147322073578835,-0.008441120386123657,0.057737089693546295,0.0032183958683162928,0.05137912556529045,-0.01444390881806612,-0.09150903671979904,0.01086623128503561,0.00872652418911457,-0.07751863449811935,-0.01153920404613018,0.00026851100847125053,-0.034934431314468384,-0.014932285062968731,-0.02980373427271843,0.07748526334762573,-0.08228031545877457,0.0035901751834899187,-0.043402619659900665,-0.01734549179673195,-0.01113981008529663,0.013782891444861889,0.045856259763240814,0.014713088050484657,-0.0048701222985982895,-0.025814572349190712,0.023994822055101395,0.03460345417261124,-0.03348429501056671,-0.0043128845281898975,0.04735846817493439,-0.08243272453546524,0.041482020169496536,-0.01315021701157093,-0.03856624290347099,-0.026091523468494415,0.027390647679567337,-0.0363907516002655,0.025965837761759758,-0.013621400110423565,0.0010962039232254028,-0.02516702003777027,0.004320262931287289,0.06265019625425339,-0.021995309740304947,-0.021423736587166786,-0.014192045666277409,-0.04882837459445,0.06263750046491623,0.0063110655173659325,-0.07386957108974457,0.02827654778957367,0.06665728241205215,-0.0038128767628222704,-0.03848698362708092,-0.008149565197527409,0.023640193045139313,0.02598067745566368,0.026054004207253456,-0.019034331664443016,-0.02593243308365345,0.0019146400736644864,0.016980759799480438,-0.005058726295828819,0.031546927988529205,-0.011633381247520447,0.04418129101395607,0.04580549895763397,0.003751414129510522,0.034078724682331085,0.012303255498409271,-0.007353916298598051,0.014042115770280361,0.004717064090073109,-0.0527714304625988,0.039375074207782745,-0.02767988294363022,0.0242555420845747,-0.03891971334815025,-0.03949998319149017,0.02826613560318947,-0.03325863182544708,-0.02408728562295437,0.008779974654316902,-0.0030216211453080177,-0.06957871466875076,0.052386730909347534,-0.010809415951371193,0.03978393226861954,-0.000627283297944814,-0.009770272299647331,-0.02451716735959053,0.024760527536273003,0.05645941570401192,-0.022052941843867302,-0.054109539836645126,-0.007231969852000475,-0.033756036311388016,-0.0005623433971777558,0.047947902232408524,0.03253699839115143,0.05817190930247307,-0.05520007759332657,-0.05145809054374695,0.0014650709927082062,-0.03443417325615883,0.02134847827255726,-0.0024145536590367556,0.05196252837777138,-0.027786463499069214,-0.013343662954866886,-0.055019330233335495,0.060009486973285675,0.06444921344518661,0.014746816828846931,0.03547797352075577,-0.035772904753685,0.009319934993982315,-0.004903559107333422,0.06502161920070648,0.027352672070264816,-0.04178468510508537,0.016589434817433357,0.015670178458094597,-0.09294433146715164,-0.02606237679719925,0.05174178630113602,-9.195525490213186e-05,-0.010456396266818047,0.0681743398308754,0.04565810412168503,-0.039809323847293854,-0.031056363135576248,0.02177431620657444,-0.026829252019524574,-0.02285042032599449,-0.01095427293330431,-0.008183125406503677,-0.006153807044029236,-0.00010193957132287323,-0.05445335432887077,0.0023865411058068275,0.002994710812345147,-0.012709744274616241,-0.025177406147122383,0.028597841039299965,0.012093953788280487,0.0017437762580811977,-0.005260607693344355,0.02206587791442871,-0.0663122907280922,-0.07155090570449829,-0.00037456798600032926,0.011789354495704174,-0.057692207396030426,0.05574978515505791,0.04361934959888458,-0.018185442313551903,0.014135015197098255,0.018448268994688988,-0.05386541411280632,0.046158503741025925,-0.01963108777999878,0.04680187255144119,-0.008994735777378082,-0.06497429311275482,-0.00966410432010889,-0.022679951041936874,0.02029312215745449,-0.011943035759031773,0.05323595181107521,-0.014017260633409023,-0.033874694257974625,-0.027049610391259193,0.043539345264434814,0.009258411824703217,0.019638950005173683,0.0009024070459417999,0.06991157680749893,-0.027920188382267952,0.003192052012309432,-0.02263563871383667,0.008830237202346325,0.06120339408516884,0.04130078852176666,-0.010166791267693043,-0.02806239016354084,-0.009355657733976841,-0.03716215491294861,0.01857658475637436,-0.03186764568090439,0.024291135370731354,-0.007690025493502617,0.02886183001101017,0.015238558873534203,-0.008100885897874832,-0.03248843550682068,0.0392892062664032,-0.012002893723547459,-0.030566945672035217,-0.0008027254370972514,0.021423157304525375,0.0023617080878466368,0.05324083939194679,-0.0016576758353039622,-0.01963920146226883,0.06779761612415314,-0.07651109993457794,-0.012208361178636551,0.007262873463332653,-0.018323060125112534,0.04980732500553131,-0.028237024322152138,-0.04134373366832733,0.08552709221839905,-0.027977142482995987,-0.023179562762379646,-0.014347828924655914,-0.036195509135723114,0.07633596658706665,-0.025915764272212982,0.022147735580801964,-0.04939642176032066,-0.002911081537604332,-0.06292548775672913,-0.0007254416705109179,0.0038389568217098713,0.06661096215248108,-0.008145464584231377,-0.055716510862112045,0.033730946481227875,-0.021547973155975342,-0.025867348536849022,0.00016306179168168455,-0.04880799353122711,0.02916303090751171,-0.0014339904300868511,0.024371663108468056,0.028448814526200294,0.02081034705042839,-0.021968603134155273,-0.025928938761353493,0.0018735664198175073,0.013242666609585285,-0.07961543649435043,0.03774987533688545,0.003869451815262437,0.01481526717543602,0.005973596125841141,0.034805476665496826,-0.01511656679213047,0.00347688514739275
dog,0.03645624592900276,-0.0337895043194294,-0.03086996264755726,-0.02271139807999134,-0.007408206816762686,-0.006187635473906994,0.011824941262602806,0.007002912927418947,0.0022127048578113317,0.031657151877880096,-0.003818947821855545,-0.0012524391058832407,-0.00595363974571228,-0.018377989530563354,0.03538323938846588,0.0032714467961341143,0.003159165848046541,0.015600064769387245,-0.017647184431552887,-0.003050951287150383,0.021024474874138832,-0.00324239325709641,0.003559892065823078,0.017813414335250854,-0.003911472391337156,-0.03283192962408066,0.048340391367673874,-0.05830727145075798,-0.0222561527043581,0.04397900775074959,-0.07858597487211227,0.03359886258840561,-0.04496636241674423,-0.014251111075282097,0.008544092066586018,-0.054382309317588806,-0.011997221037745476,0.0285075344145298,0.030125444754958153,0.01320490799844265,0.014558656141161919,-0.06328409910202026,-0.027383051812648773,-0.045105766505002975,0.07081550359725952,0.007423594128340483,0.04262077435851097,-0.0169200636446476,-0.005907437764108181,-0.07050599157810211,0.08274727314710617,0.02460758574306965,0.04246324300765991,-0.035428736358881,-0.017251627519726753,5.875555416423595e-06,0.058380503207445145,0.05598050728440285,-0.04424536973237991,-0.014175980351865292,0.012246333062648773,0.04722201079130173,0.0036233682185411453,0.09202374517917633,-0.0121290422976017,0.02465806156396866,-0.06799790263175964,0.03990975022315979,0.04247206822037697,-0.052919574081897736,-0.025685537606477737,-0.026958130300045013,0.00035886489786207676,-0.0013436258304864168,-0.003939875867217779,-0.07180818915367126,-0.04979864880442619,0.021366547793149948,-0.041958168148994446,0.03192673623561859,0.030491560697555542,-0.06394866853952408,-0.016354218125343323,-0.03083372674882412,-0.07606665790081024,0.02890998125076294,-0.07462238520383835,0.025036239996552467,0.0334479920566082,0.01791466400027275,-0.06955423206090927,-0.011295994743704796,0.00412755599245429,-0.07581974565982819,-0.029871206730604172,0.0382215715944767,-0.004616309888660908,0.009282232262194157,-0.027885906398296356,-0.03537404537200928,-0.004950235132128,-0.01616770215332508,0.022136159241199493,0.017396606504917145,0.03157716616988182,0.025587812066078186,0.0010477827163413167,0.043376460671424866,-0.00705493101850152,0.024349190294742584,-0.046381499618291855,0.009703104384243488,-0.025237370282411575,-0.04292814061045647,0.033774301409721375,0.012036844156682491,-0.005734293255954981,0.08739499002695084,0.04535171017050743,0.028081852942705154,-0.013294540345668793,0.008780039846897125,0.04273107275366783,0.02765442617237568,0.02266174554824829,0.05532602220773697,-0.01770261861383915,0.03160323202610016,0.01986381970345974,0.014266607351601124,-0.015587211586534977,-0.039324015378952026,0.026277054101228714,0.040287893265485764,0.052540697157382965,0.08056125789880753,-0.005981460679322481,0.0118316151201725,0.02144305408000946,0.02249252237379551,-0.029756080359220505,0.017714818939566612,-0.009894192218780518,0.02907807193696499,0.0034319604746997356,0.021114470437169075,-0.03210321068763733,-0.06257778406143188,0.032537203282117844,0.01984299160540104,-0.032332584261894226,-0.03391667455434799,-0.06961468607187271,0.02648584172129631,0.09287066757678986,-0.008808749727904797,-0.034322354942560196,0.07495290040969849,0.011296652257442474,0.00037819708813913167,0.016347773373126984,0.026179412379860878,0.009171854704618454,0.02599344402551651,-0.030232952907681465,-0.02934245578944683,0.0028844373300671577,-0.003567314939573407,0.0265396386384964,0.008949571289122105,0.002255912870168686,-0.012369734235107899,-0.04911746457219124,-0.07537373155355453,-0.022825760766863823,-0.07423444092273712,-0.039231739938259125,-0.04299746826291084,-0.004741470795124769,-0.05713168531656265,-0.007358341943472624,-0.03854988515377045,-0.006615494843572378,0.04088495299220085,0.02704029157757759,-0.0009421764989383519,0.08215579390525818,-0.015731045976281166,-0.0477859191596508,-0.024486606940627098,-0.018715042620897293,-0.030290983617305756,-0.0235001053661108,-0.015284841880202293,-0.010318544693291187,0.04405268281698227,-0.016524720937013626,0.020852956920862198,0.03237881138920784,-0.03529037907719612,0.029716717079281807,0.08738277852535248,-0.01647740602493286,-0.0020104816649109125,0.022811291739344597,-0.009937753900885582,0.07370711863040924,-0.03573157638311386,0.022998182103037834,0.0012424768647179008,-0.02077820710837841,-0.04924248158931732,-0.01752626895904541,0.04019320011138916,0.03500617295503616,0.005567475222051144,0.02562226727604866,0.03324940800666809,0.0010953738819807768,0.021136775612831116,-0.02985624223947525,-0.02541971579194069,-0.01827862858772278,0.008305340074002743,0.007251091301441193,0.029919786378741264,-0.04017895087599754,0.034598208963871,0.007395472377538681,-0.06287962943315506,0.0036079250276088715,0.04106607660651207,0.014146712608635426,-0.0458771176636219,0.03671305999159813,-0.028279606252908707,-0.012287160381674767,0.019681373611092567,0.005852636881172657,0.04183752462267876,-0.0627862960100174,0.06470496207475662,0.01903185248374939,0.010512303560972214,-0.047499679028987885,-0.030089901760220528,-0.021920381113886833,0.03671377897262573,-0.05701722204685211,0.035211239010095596,-0.021860556676983833,-0.028622416779398918,0.02256101742386818,0.019308125600218773,-0.02903001941740513,0.051202334463596344,-0.08724208921194077,0.001133799203671515,0.019628319889307022,0.0422370582818985,0.07296634465456009,0.013289020396769047,-0.03497415781021118,0.0018626982346177101,-0.028288191184401512,0.015912003815174103,0.03896050527691841,-0.0030185093637555838,0.014244873076677322,0.04954574629664421,-0.021666377782821655,-0.01609623432159424,0.028184857219457626,0.004130541812628508,-0.010192617774009705,0.02624877542257309,-0.003937686327844858,0.021231306716799736,0.03648768737912178,-0.005483843386173248,0.0010109443683177233,0.027728283777832985,0.045681215822696686,-0.057742562144994736,-0.012442689388990402,0.002429248997941613,-0.05095340311527252,0.009602613747119904,-0.004591884091496468,-0.022920656949281693,-0.025661109015345573,-0.002950202440842986,-0.006523115560412407,-0.028112657368183136,-0.03394653648138046,0.0410011000931263,-0.029283447191119194,0.03875071555376053,-0.003660912625491619,0.0032994241919368505,0.027135111391544342,-0.07179983705282211,0.01607329770922661,-0.05158352106809616,0.0013627174776047468,0.03478066995739937,0.01601274684071541,-0.05389712378382683,0.02881203219294548,0.008204841986298561,-0.016858601942658424,-0.013788482174277306,-0.07172314822673798,0.04952004551887512,0.1113787591457367,0.025225171819329262,0.015874283388257027,0.007494689431041479,-0.0007252782816067338,0.03630505129694939,0.0149921253323555,0.06231828033924103,0.012118314392864704,-0.03378156200051308,0.0038388962857425213,0.04375692829489708,-0.00033714852179400623,0.08091501891613007,-0.00496463431045413,0.022049011662602425,-0.008018724620342255,-0.01744847744703293,-0.07506084442138672,0.035504862666130066,-0.009285717271268368,0.008850399404764175,-0.04062143340706825,0.02058820240199566,-0.04339676350355148,0.027070267125964165,0.002455487148836255,0.0020312427077442408,-0.025336777791380882,-0.06229027733206749,0.051664743572473526,-0.023395638912916183,-0.023487454280257225,-0.00264928862452507,0.06868007779121399,0.0543535090982914,0.029360180720686913,0.06191490218043327,-0.03969680517911911,-0.024992194026708603,-0.03206175938248634,-0.042020633816719055,0.03422112017869949,0.015018974430859089,0.05005142465233803,-0.006227049510926008,0.0013470430858433247,0.05723823979496956,-0.034312520176172256,-0.03426793962717056,0.02887529321014881,0.07360295206308365,0.007305167615413666,-0.0013435280416160822,-0.018040120601654053,0.018482550978660583,-0.013938289135694504,-0.0349431075155735,-0.007279860787093639,0.0037569638807326555,-0.050385765731334686,-0.06438961625099182,-0.012927885167300701,-0.026084497570991516,-0.024606669321656227,-0.035216256976127625,0.020253203809261322,-0.010077506303787231,0.07007288187742233,0.03964676335453987,-0.002380332676693797,-0.022254332900047302,0.054361648857593536,0.07212734967470169,0.02937520109117031,0.015844304114580154,0.06352347880601883,0.033959828317165375,0.04672618955373764,0.05692858248949051,0.011008379980921745,0.005528294015675783,-0.028858784586191177,-0.04771418869495392,-0.006784771103411913,-0.010358615778386593,0.019515221938490868,0.03239770978689194,-0.07868777960538864,-0.021785032004117966,-0.047811783850193024,-0.038319461047649384,-0.010387460701167583,-0.02536981925368309,-0.0504956915974617,-0.04879862442612648,0.05589183419942856,0.05004236474633217,0.03679696097970009,-0.07125291228294373,-0.0710519552230835,-0.03901496157050133,0.06409750133752823,-0.004590408410876989,0.011341664008796215,0.006374089978635311,-0.02823161706328392,0.01736574061214924,0.0010818429291248322,-0.023288527503609657,-0.029547030106186867,-0.04524178430438042,-0.004018126055598259,-0.022667957469820976,-0.02873574011027813,0.023137453943490982,0.06170235574245453,0.02326798252761364,0.01202233787626028,0.023931682109832764,-0.010024608112871647,-0.05321225896477699,-0.023825770244002342,0.057044997811317444,-0.03738725930452347,0.0077145760878920555,0.007981298491358757,-0.011233347468078136,0.02875003032386303,0.011868112720549107,-0.06723865121603012,-0.04606722295284271,-0.0016521812649443746,-0.029773207381367683,0.01747293770313263,-0.13111676275730133,-0.04080697149038315,-0.10618127882480621,-0.008610386401414871,-0.09702331572771072,0.0025393248070031404,-0.011070365086197853,-0.00794906821101904,0.04656992852687836,-0.021112259477376938,0.010495898313820362,-0.03709089756011963,-0.03147096186876297,-0.0010154441697522998,-0.0305587500333786,0.01674443483352661,-0.029512230306863785,0.06774800270795822,0.013498700223863125,0.029884684830904007,0.03135526552796364,0.004117265809327364,-0.044605858623981476,0.03386364504694939,0.011152931489050388,-0.009815381839871407,0.008040593937039375,-0.008191133849322796,-0.034793611615896225,0.007320363074541092,-0.014857989735901356,0.025979621335864067,-0.008450309745967388,0.057892199605703354,0.016598206013441086,0.01296184305101633,-0.02293567731976509,0.022362662479281425,-0.03294787183403969,-0.030144277960062027,0.05000612884759903,-0.01467223186045885,-0.01598392240703106,-0.020884431898593903,-0.06328865140676498,0.019128745421767235,0.0018612643470987678,-0.004991334397345781,0.013877212069928646,0.04129036143422127,0.03179663419723511,-0.027768028900027275,-0.01711330935359001,-0.03476785495877266,-0.016149362549185753,0.05004501715302467,-0.09334642440080643,-0.006060488987714052,0.03590381145477295,-0.01784680411219597,0.02221527509391308,0.007688945159316063,0.029132341966032982,-0.00454705161973834,0.006814389955252409,0.032376307994127274,-0.03967614471912384,0.011912960559129715,0.011857671663165092,0.03323927894234657,0.03230609744787216,0.06530464440584183,-0.014176502823829651,-0.12113940715789795,-0.03466513752937317,-0.01227540522813797,-0.05117192491889,-0.011184029281139374,0.02567949704825878,-0.019241882488131523,-0.020949922502040863,-0.0006780421826988459,0.09121689200401306,-0.08577387779951096,0.02851957082748413,0.003565099323168397,-0.001664674375206232,0.023195387795567513,0.04088228568434715,0.009526699781417847,0.01576584205031395,0.009384035132825375,-0.04148615524172783,-0.004991812631487846,0.03408082574605942,-0.033837951719760895,0.01261968445032835,0.040504567325115204,-0.0934978574514389,0.01885126158595085,0.0021816149819642305,-0.02532360516488552,0.028079934418201447,0.018269041553139687,-0.012045434676110744,0.034890398383140564,-0.004344562534242868,-0.0002348041016375646,-0.007016348652541637,0.03311334177851677,0.018940603360533714,0.01846982166171074,-0.03962431475520134,0.019816884770989418,-0.051294080913066864,0.05917900428175926,-0.007537313271313906,-0.01776810921728611,0.05321026220917702,0.060788288712501526,0.013181001879274845,-0.01586453802883625,0.04707752540707588,0.0585322231054306,-0.007398231420665979,-0.0033635699655860662,-0.008379997685551643,-0.0440329946577549,-0.01579461619257927,0.024468036368489265,0.006392406765371561,0.03563285991549492,-0.014900822192430496,0.03906868025660515,0.05341067537665367,-0.023571006953716278,0.06317560374736786,0.02057074010372162,0.025089897215366364,0.026414567604660988,0.0036273859441280365,-0.05474822595715523,-0.002556790132075548,-0.0324084609746933,0.02000153250992298,-0.025835134088993073,-0.012275067158043385,0.03257397562265396,0.0013689558254554868,-0.013522402383387089,0.0008553614607080817,0.0020175050012767315,-0.07740028947591782,0.0898139625787735,-0.04546048492193222,0.004907853901386261,0.012851771898567677,0.019410982728004456,0.01101328618824482,-0.030965786427259445,0.04209131374955177,0.004646617919206619,-0.04516943171620369,0.020720478147268295,-0.045317016541957855,-0.029949745163321495,0.01354092638939619,0.06644394993782043,0.030602382495999336,-0.028698986396193504,-0.012715882621705532,-0.009767157956957817,-0.04478432610630989,-0.003094803774729371,0.029649486765265465,0.0599149689078331,-0.03514294698834419,-0.031194010749459267,-0.056167419999837875,0.08297019451856613,0.10069889575242996,0.0025249100290238857,0.040693581104278564,-0.008679754100739956,-0.021669160574674606,-0.02005244418978691,0.045033108443021774,0.028983594849705696,-0.011499042622745037,0.04382362216711044,0.02236674539744854,-0.07514465600252151,-0.005921684671193361,0.06557108461856842,0.004107280634343624,0.0015575994038954377,0.06949454545974731,0.002356122713536024,-0.054217007011175156,-0.046538762748241425,0.011512957513332367,-0.057254090905189514,-0.001343088923022151,0.003655387321487069,0.007283396553248167,-0.027307363227009773,-0.004496053792536259,-0.026633867993950844,-0.014147292822599411,0.00017684638442005962,-0.027234792709350586,-0.05498548969626427,0.01604483835399151,0.011695733293890953,0.03953535109758377,-0.013423124328255653,0.009338663890957832,-0.056820835918188095,-0.039148688316345215,-0.026575148105621338,0.03734538331627846,-0.06183275207877159,0.06783556938171387,0.04083191975951195,0.005608227103948593,0.03325073421001434,0.040288880467414856,-0.02414710260927677,0.03827971965074539,-0.01373804546892643,0.027718424797058105,-0.03327513113617897,-0.03477110341191292,-0.005749096628278494,-0.02101684920489788,0.00780267920345068,-0.001256671268492937,0.04266578331589699,-0.019347570836544037,-0.005424623843282461,-0.046525124460458755,0.06483613699674606,-0.04905104264616966,0.014955026097595692,-0.035185690969228745,0.05324440076947212,-0.0007368394872173667,-0.03904760256409645,-0.020581748336553574,0.013538583181798458,0.06118316203355789,-0.017037803307175636,-0.02911488711833954,-0.018427347764372826,0.003762124804779887,0.0016683473950251937,0.010032644495368004,-0.020306682214140892,0.013471340760588646,-0.016883425414562225,0.004749482497572899,-0.02069205790758133,0.0030140539165586233,-0.03171851485967636,0.03764553740620613,0.0032982523553073406,-0.05021944269537926,0.0054030208848416805,0.027018075808882713,-0.028841642662882805,0.04548118636012077,0.014572348445653915,-0.012526039034128189,0.050786957144737244,-0.04358774796128273,-0.022006480023264885,0.010891392827033997,-0.007632020860910416,0.0038588177412748337,-0.0042389193549752235,-0.056677065789699554,0.07012174278497696,-0.0016682468121871352,0.008362025022506714,0.052011456340551376,-0.028934922069311142,0.07985640317201614,0.010976948775351048,0.01296755950897932,-0.017944594845175743,-0.031686194241046906,-0.008092593401670456,-0.013919856399297714,0.034305643290281296,0.010872102342545986,0.0032760296016931534,-0.03585733100771904,0.02819059230387211,-0.012371674180030823,-0.014653992839157581,0.01900668814778328,-0.06132422387599945,-0.0011663669720292091,-0.03731627017259598,0.05962715670466423,0.019394420087337494,0.01223111990839243,-0.00798063538968563,-0.03192771226167679,-0.00831420999020338,0.024999475106596947,-0.06890197843313217,0.024313420057296753,0.009708300232887268,0.0015758760273456573,-0.013087006285786629,-0.011820198968052864,-0.02158384956419468,0.009345835074782372
banana,0.03775789961218834,-0.03178543597459793,-0.028598995879292488,0.001841476303525269,0.007733101025223732,-0.00022187868307810277,0.01666288450360298,-0.014331831596791744,0.007753718178719282,0.05328793823719025,0.005333493463695049,-0.02791617251932621,0.0006503681070171297,-0.02877228707075119,-0.03266071900725365,-0.0017805335810407996,0.03204292804002762,0.04310757666826248,0.021231474354863167,-0.015224235132336617,-0.03702915459871292,0.05020464211702347,0.021686289459466934,0.034096475690603256,0.002949376590549946,0.004523982293903828,0.05911454185843468,-0.06867361068725586,-0.049506597220897675,0.049283791333436966,-0.04841851070523262,0.03797048702836037,-0.06605991721153259,0.004686378408223391,0.010586507618427277,-0.012872070074081421,-0.016176791861653328,-0.02783242240548134,-0.006010111421346664,-0.013994269073009491,0.0009353351197205484,-0.034974776208400726,-0.013424948789179325,-0.033004749566316605,0.05220763012766838,-0.0042766546830534935,0.036518774926662445,-0.007459945511072874,0.01969172991812229,-0.049497321248054504,0.04985212907195091,-0.03856101259589195,0.01910867728292942,-0.02652725577354431,-0.005832026246935129,0.011957953684031963,0.00871208030730486,0.003830278292298317,0.005101871211081743,-0.03932357206940651,0.00630367174744606,0.03770840913057327,0.008817316964268684,0.09193406254053116,-0.011241151951253414,-0.013260871171951294,-0.032662633806467056,0.059589043259620667,0.04304146021604538,-0.0087656294927001,-0.010439560748636723,-0.014244411140680313,0.03614959493279457,-0.011047305539250374,-0.009578236378729343,-0.07706397771835327,-0.03795548155903816,0.041402269154787064,0.021610690280795097,-0.027956219390034676,0.007714994717389345,-0.06400391459465027,-0.012559870257973671,-0.04254566505551338,-0.06688312441110611,0.008558304980397224,-0.05950010195374489,0.02287251129746437,0.06204719841480255,0.03451145067811012,-0.0033910179045051336,0.005740862339735031,0.0032698088325560093,-0.06082017719745636,-0.01428236998617649,0.001064289710484445,-0.03247765824198723,-0.004329743795096874,0.018933048471808434,-0.027238212525844574,-0.022556766867637634,-0.006629388313740492,-0.014134571887552738,-0.02562243491411209,0.027085434645414352,-0.0018125239294022322,-0.008695395663380623,0.06997854262590408,0.021968435496091843,0.039830248802900314,-0.029741177335381508,-0.013914516195654869,-0.0011314223520457745,-0.008654615841805935,0.020380470901727676,0.04281192645430565,-0.0297378022223711,0.07097554951906204,0.01167819183319807,0.005285306368023157,-0.020783349871635437,-0.04338480159640312,0.05589492246508598,-0.06296384334564209,0.02015855349600315,0.03200732544064522,-0.0006688112625852227,0.04743102565407753,0.06442419439554214,0.016972269862890244,-0.06663193553686142,-0.06398734450340271,0.02307823672890663,0.05075881630182266,0.06955437362194061,0.12318259477615356,0.036057546734809875,0.004043307621032,0.06095654144883156,0.014369361102581024,-0.009371920488774776,-0.03183005005121231,0.02695966698229313,-0.006632049567997456,-0.008867427706718445,0.009777157567441463,-0.0203793216496706,-0.017220428213477135,0.05211608111858368,0.020988518372178078,-0.018958579748868942,0.017303550615906715,-0.06117698550224304,0.04642264544963837,0.06019895151257515,-0.02383756823837757,-0.018658868968486786,0.04113052040338516,-0.00400584889575839,0.00485030235722661,0.04250563308596611,0.006041535641998053,0.048879608511924744,0.008251883089542389,-0.025274740532040596,-0.02128581702709198,0.051841821521520615,-0.013652265071868896,0.01583615131676197,0.02494613081216812,0.004176247399300337,0.00821379479020834,-0.04836106300354004,-0.05457602068781853,-0.01862235739827156,-0.05728909373283386,-0.02914383076131344,-0.014317955821752548,-0.014001172035932541,-0.042540472000837326,0.027205249294638634,-0.031095849350094795,0.025934869423508644,0.03277125209569931,0.022423673421144485,-0.008367249742150307,0.06590764969587326,0.024975772947072983,-0.035889822989702225,0.00026328524108976126,-0.021961499005556107,-0.037072017788887024,-0.0310699213296175,-0.010252436622977257,-0.03760572895407677,0.0465475358068943,-0.012612276710569859,0.020993683487176895,-0.007657094392925501,-0.043968088924884796,0.013375501148402691,0.08193889260292053,0.02299969270825386,-0.020340288057923317,0.021203309297561646,-0.004902107175439596,0.06918996572494507,-0.0768565759062767,0.0010421945480629802,0.008692329749464989,-0.0435095950961113,-0.01727212779223919,-0.04895429313182831,0.02561895176768303,0.015204529277980328,0.010312119498848915,0.011008648201823235,0.03972424566745758,-0.01401689276099205,-0.0003095297433901578,-0.053944919258356094,-0.01954520493745804,-0.033661190420389175,0.0038638582918792963,0.025842659175395966,0.033212415874004364,-0.028786271810531616,-0.00012573151616379619,-0.015537198632955551,-0.0544864796102047,-0.024183478206396103,0.025676792487502098,-0.013687985017895699,-0.017462143674492836,0.030103489756584167,-0.050497397780418396,-0.009269480593502522,0.010335571132600307,-0.02581748552620411,0.038892123848199844,-0.03784499317407608,0.0035921884700655937,0.019958270713686943,0.03734051063656807,-0.06333530694246292,0.031788311898708344,-0.011054222472012043,0.0021367562003433704,-0.02007365971803665,0.034825216978788376,-0.06866970658302307,0.021880872547626495,0.017326492816209793,0.044153619557619095,-0.049222610890865326,0.026268046349287033,-0.07581625878810883,-0.015176692977547646,-0.027872296050190926,0.04768483713269234,0.03314637765288353,0.019992591813206673,-0.020735695958137512,-0.0004583476693369448,-0.03193788602948189,0.00018738076323643327,0.023427831009030342,-0.04788403585553169,-0.006220777984708548,0.031237183138728142,0.038582365959882736,-0.01749633252620697,0.059075530618429184,0.016614042222499847,-0.0038087530992925167,0.002002411987632513,-0.008167696185410023,0.008741231635212898,-0.01696844957768917,-0.00869304034858942,-0.016176298260688782,0.01371418870985508,0.01890254206955433,-0.07549352943897247,-0.03955359011888504,-0.009620183147490025,-0.08694296330213547,-0.03576946631073952,0.029831090942025185,-0.0279376283288002,-0.07164926081895828,-0.0445622019469738,-0.021138695999979973,-0.03398122638463974,-0.014765370637178421,0.034919317811727524,-0.013673841021955013,0.04353299364447594,0.008751162327826023,-0.02607385441660881,-0.020776325836777687,-0.034681983292102814,-0.022991685196757317,-0.040396008640527725,0.0312056764960289,0.02282772958278656,-0.011136454530060291,-0.07720454782247543,-0.0022433483973145485,0.022976232692599297,0.06029306724667549,-0.016158798709511757,-0.03953016921877861,0.0014976798556745052,0.033660732209682465,0.01552423182874918,-0.003638909198343754,0.031196532770991325,-0.028956403955817223,0.06831631064414978,0.029633721336722374,0.09122107923030853,0.04339023679494858,-0.005356041714549065,-0.017245449125766754,-0.013502968475222588,-0.010856559500098228,0.062371041625738144,-0.01814829744398594,0.0010794575791805983,0.012506484985351562,-0.0055143279023468494,-0.04938200116157532,0.043556373566389084,-0.007565316278487444,-0.008633081801235676,-0.06674008816480637,-0.006896124221384525,-0.01232068333774805,0.010016633197665215,0.049988407641649246,-0.04176708683371544,-0.03567308560013771,-0.053373925387859344,-0.011537516489624977,0.015951305627822876,-0.022228218615055084,0.018802912905812263,0.06683165580034256,0.023963628336787224,0.001239283592440188,0.025484204292297363,-0.014099691063165665,-0.003522126469761133,-0.007137637585401535,-0.008713453076779842,0.028665587306022644,0.0066519007086753845,0.013751152902841568,-0.00875917263329029,-0.03601335734128952,0.06257255375385284,0.005631859414279461,-0.01937522552907467,-0.0006596165476366878,0.06850404292345047,-0.02257746271789074,0.004182345233857632,-0.07610167562961578,0.03200048580765724,0.011400969699025154,-0.02693593129515648,0.008893576450645924,0.026613933965563774,-0.00509997783228755,-0.054507266730070114,-0.04065840691328049,-0.05333876609802246,0.021136032417416573,-0.024252885952591896,-0.013990364037454128,-0.012156514450907707,0.027807502076029778,0.0390913188457489,0.008232185617089272,0.02969636581838131,0.05711701139807701,0.048766087740659714,0.026393866166472435,-0.009344165213406086,0.03947921469807625,-0.02489243634045124,0.038945265114307404,0.05612509325146675,0.011993016116321087,0.013924495317041874,-0.023078078404068947,-0.04914601147174835,0.03835722431540489,-0.041374512016773224,-0.025054030120372772,-0.04668675735592842,-0.03993959724903107,-0.027243362739682198,-0.04052189737558365,0.0023224065080285072,0.004346994683146477,-0.038620855659246445,-0.01918397657573223,0.0190406646579504,0.012804597616195679,0.02793564274907112,0.05399569123983383,-0.08016537874937057,-0.03472946584224701,-0.0545826219022274,0.0822213888168335,0.0026506579015403986,0.012500512413680553,0.03926791995763779,0.03705930337309837,0.05104052647948265,-0.004152009729295969,-0.019252877682447433,-0.0251312293112278,-0.010421928949654102,0.04259265214204788,0.008334612473845482,0.006516278721392155,0.02868175134062767,0.04437534511089325,0.03215863183140755,-0.03548029437661171,0.008576806634664536,-0.03143967688083649,-0.029499074444174767,0.00020961782138329,0.01675456017255783,-0.01782207377254963,-0.014949807897210121,-0.02981197088956833,0.004925116430968046,0.01348612830042839,-0.0028716044034808874,-0.059276558458805084,-0.03291559964418411,-0.02956518530845642,-0.051342036575078964,0.030201708897948265,-0.07382449507713318,0.005644922144711018,-0.06690408289432526,-0.017862459644675255,-0.10245748609304428,-0.03906194493174553,-0.04742928594350815,-0.04315564036369324,0.07583554089069366,-0.01557053904980421,-0.009088062681257725,-0.020115410909056664,-0.001039313618093729,-0.021975889801979065,-0.0377381332218647,0.0433688722550869,-0.022308064624667168,0.017458297312259674,-0.03161078691482544,-0.00031562018557451665,-0.002133952686563134,-0.02431529015302658,-0.019936103373765945,0.01461399719119072,-0.023056576028466225,-0.008293000981211662,0.011268503963947296,-0.07257839292287827,-0.056888505816459656,0.031103285029530525,-0.05699621140956879,0.028272127732634544,0.01884686015546322,0.07802402973175049,0.007863770239055157,-0.013583999127149582,-0.025429390370845795,-0.026757605373859406,-0.034169457852840424,-0.0019689586479216814,0.03432014212012291,-0.033808767795562744,-0.04578458145260811,-0.02434498257935047,-0.03875255584716797,-0.009791509248316288,-0.003713547484949231,-0.02077176421880722,0.0448237769305706,0.04540792107582092,0.031933534890413284,-0.03810038045048714,-0.0368742011487484,0.00029257824644446373,-0.022538164630532265,0.042034249752759933,-0.08774848282337189,0.01813463680446148,0.010516591370105743,-0.05537252500653267,-0.005354039371013641,0.04349720850586891,-0.005204804241657257,-0.02834174409508705,-0.009190159849822521,0.03993484750390053,-0.028957387432456017,0.010099833831191063,0.01942054182291031,0.028580868616700172,0.02958599664270878,0.0881822481751442,0.007703425362706184,-0.06607509404420853,-0.005178811028599739,0.045579295605421066,-0.02760002389550209,0.00870481226593256,0.014984453096985817,-0.0719461590051651,0.04607139155268669,-0.06195253133773804,0.059773899614810944,-0.08966125547885895,0.005467567127197981,-0.007566271349787712,-0.026265116408467293,-0.009820778854191303,0.013429348357021809,0.03198913484811783,0.0034047160297632217,0.03847770765423775,-0.04226919263601303,0.008049741387367249,0.03073301538825035,0.010434972122311592,0.019915226846933365,0.01782527007162571,-0.1104920506477356,0.03495708480477333,-0.01653910055756569,0.018298722803592682,-0.010299493558704853,0.01203958597034216,-0.032395269721746445,0.010725973173975945,0.009976182132959366,-0.019958382472395897,-0.004367506131529808,0.01529696024954319,0.024017777293920517,-0.0606212392449379,-0.04067583009600639,0.001597097609192133,-0.03645280376076698,0.10510297864675522,0.022689417004585266,0.024392887949943542,0.042440544813871384,0.0805659070611,-0.03272845596075058,0.0020962099079042673,0.0034455726854503155,0.03683699667453766,0.014197069220244884,0.014733968302607536,0.02940075658261776,-0.05532796308398247,-0.01321448665112257,-0.00289630307815969,0.05425039678812027,0.0466090552508831,0.012065951712429523,-0.0014017667854204774,0.07703014463186264,0.010694818571209908,0.044712748378515244,0.0028005291242152452,0.0015695616602897644,-8.014820195967332e-05,0.0012608544202521443,-0.047416020184755325,-0.0006979588069953024,-0.022855747491121292,0.04547588527202606,-0.034150630235672,-0.004338324069976807,0.040339842438697815,0.013522665947675705,0.030795712023973465,-0.023687750101089478,-0.05462978407740593,-0.06083980202674866,0.09033893793821335,-0.04730081930756569,0.07739182561635971,0.0018809122266247869,-0.0392710343003273,0.007052318658679724,0.01563398912549019,0.016739919781684875,-0.02035149186849594,-0.08387742936611176,0.014279808849096298,-0.03678116202354431,-0.013094383291900158,-0.016723064705729485,0.06685680896043777,0.015878042206168175,-0.013831988908350468,-0.02978014200925827,-0.04041578248143196,0.006982607766985893,0.011756901629269123,-0.009682712145149708,0.06186660751700401,0.01928083226084709,-0.014550288207828999,-0.004327133297920227,0.03716336935758591,0.048908233642578125,0.054590895771980286,0.011969312094151974,0.017155351117253304,-0.014815333299338818,-0.05845656618475914,0.04613819345831871,-0.0008459208765998483,-0.03742336854338646,0.010856358334422112,-0.005606002174317837,-0.07284145057201385,0.011294213123619556,0.029400696977972984,0.004810414742678404,0.015528129413723946,0.1259850561618805,0.012158643454313278,-0.06156701594591141,-0.014549353159964085,0.011267091147601604,-0.048806726932525635,0.0008779317722655833,-1.3922472135163844e-06,0.021696921437978745,-0.015153958462178707,-0.027856988832354546,-0.027378661558032036,-0.058750249445438385,0.025655584409832954,-0.0468912310898304,-0.041206344962120056,0.018245015293359756,-0.0021239814814180136,0.004029902163892984,0.07009859383106232,0.027117621153593063,-0.10195805877447128,-0.08784983307123184,-0.008134896866977215,0.039144545793533325,-0.07251104712486267,0.06607712805271149,0.026986664161086082,-0.022499121725559235,0.05299187824130058,0.027571622282266617,-0.024848591536283493,0.05903805419802666,-0.015355062671005726,0.04302940145134926,-0.02676491066813469,-0.04154735803604126,-0.03877168521285057,0.00012312996841501445,0.012046760879456997,0.033724892884492874,0.07534142583608627,0.016629451885819435,-0.011615206487476826,-0.030131688341498375,0.047577809542417526,-0.004956329241394997,0.010186715982854366,-0.03190872445702553,0.09289602935314178,0.0208550076931715,0.0026929129380732775,-0.01577531360089779,-0.0022543740924447775,0.04216073453426361,-0.012325242161750793,-0.024877717718482018,-0.01188595499843359,0.019197389483451843,-0.01465029176324606,0.03411529213190079,-0.010442795231938362,-0.015070544555783272,-0.006425440311431885,0.04131944850087166,0.03909569978713989,-0.019016459584236145,-0.00488591892644763,0.05617965757846832,0.013836587779223919,-0.011312122456729412,0.002880374202504754,0.02305985614657402,-0.026250408962368965,0.04046441242098808,0.0010864969808608294,0.0026048501022160053,0.06842374056577682,-0.02911307103931904,-0.01891958899796009,0.0012375622754916549,-0.029059823602437973,0.040162745863199234,-0.01640138030052185,-0.012313399463891983,0.04677264019846916,-0.021605968475341797,-0.05315704643726349,0.015497652813792229,-0.06496238708496094,0.053842417895793915,-0.0004388870147522539,0.0031644392292946577,-0.0969545915722847,-0.01993713341653347,-0.044463351368904114,0.03404100611805916,0.030611004680395126,0.08586341887712479,0.0007425528019666672,-0.030285494402050972,0.029859410598874092,-0.01778700016438961,0.0019871213007718325,0.009177854284644127,-0.049336113035678864,0.012478348799049854,-0.01800686866044998,0.008882543072104454,0.0027831648476421833,-0.02399071864783764,0.04185527563095093,-0.026422491297125816,-0.01626867987215519,-0.02195495180785656,-0.020710544660687447,0.011502381414175034,-0.0018168030073866248,0.02395377680659294,0.034531064331531525,0.011859063059091568,-0.03427848592400551,0.029949545860290527
